{"learner":{"attributes":{"best_iteration":"99","best_ntree_limit":"100","scikit_learn":"{\"use_label_encoder\": true, \"objective\": \"binary:logistic\", \"max_depth\": 10, \"learning_rate\": 0.2, \"verbosity\": null, \"booster\": null, \"tree_method\": \"gpu_hist\", \"gamma\": 0.5, \"min_child_weight\": null, \"max_delta_step\": null, \"subsample\": 0.5, \"colsample_bytree\": 0.8000000000000003, \"colsample_bylevel\": 0.3, \"colsample_bynode\": null, \"reg_alpha\": null, \"reg_lambda\": null, \"scale_pos_weight\": null, \"base_score\": null, \"missing\": NaN, \"num_parallel_tree\": null, \"random_state\": 42, \"n_jobs\": null, \"monotone_constraints\": null, \"interaction_constraints\": null, \"importance_type\": null, \"gpu_id\": null, \"validate_parameters\": null, \"predictor\": null, \"enable_categorical\": false, \"kwargs\": {\"eval_metric\": \"logloss\"}, \"classes_\": [0, 1], \"n_classes_\": 2, \"_le\": {\"classes_\": [0, 1]}, \"_estimator_type\": \"classifier\"}"},"feature_names":["TX_AMOUNT","TX_DURING_WEEKEND","TX_DURING_NIGHT","CUSTOMER_ID_NB_TX_1DAY_WINDOW","CUSTOMER_ID_AVG_AMOUNT_1DAY_WINDOW","CUSTOMER_ID_NB_TX_7DAY_WINDOW","CUSTOMER_ID_AVG_AMOUNT_7DAY_WINDOW","CUSTOMER_ID_NB_TX_30DAY_WINDOW","CUSTOMER_ID_AVG_AMOUNT_30DAY_WINDOW","TERMINAL_ID_NB_TX_1DAY_WINDOW","TERMINAL_ID_RISK_1DAY_WINDOW","TERMINAL_ID_NB_TX_7DAY_WINDOW","TERMINAL_ID_RISK_7DAY_WINDOW","TERMINAL_ID_NB_TX_30DAY_WINDOW","TERMINAL_ID_RISK_30DAY_WINDOW"],"feature_types":["float","int","int","float","float","float","float","float","float","float","float","float","float","float","float"],"gradient_booster":{"model":{"gbtree_model_param":{"num_trees":"100","size_leaf_vector":"0"},"tree_info":[0,0,0,0,0,0,0,0,0,0,0,0,0,0,0,0,0,0,0,0,0,0,0,0,0,0,0,0,0,0,0,0,0,0,0,0,0,0,0,0,0,0,0,0,0,0,0,0,0,0,0,0,0,0,0,0,0,0,0,0,0,0,0,0,0,0,0,0,0,0,0,0,0,0,0,0,0,0,0,0,0,0,0,0,0,0,0,0,0,0,0,0,0,0,0,0,0,0,0,0],"trees":[{"base_weights":[-6.651712E-1,-7.6204705E-1,5.6399304E-1,-6.425098E-1,-1.5449274E0,1.0935191E-1,1.3434782E0,-7.160369E-1,1.1957139E0,-1.5651617E0,1.0707071E0,-3.57551E-1,1.7185742E0,-6.9187146E-1,1.8228188E0,-1.4062581E0,1.7819198E0,3.0792683E-1,1.8176944E0,-1.7883161E0,1.4766355E0,2.1276596E-1,3.4285715E-1,-7.3021924E-1,1.849624E0,2.1686748E-1,1.8378927E0,-1.1550562E0,1.6818181E0,-1.5384616E-1,1.9031657E0,-1.49656E0,5.951583E-1,7.355623E-1,1.8683149E0,-2.7494457E-1,1.5748792E0,1.5637394E0,3.9312124E-1,-1.8127925E0,9.433962E-1,1.6372671E0,-1.9636364E-1,-2.857143E-1,2.5E-1,-1.4228052E0,4.465355E-1,1.9001919E0,-8.0000006E-2,-5.0980395E-1,1.2222222E0,1.2244898E0,3.793953E-1,-1.5897436E0,3.5932204E-1,-0E0,3.7E-1,-8.181818E-1,4.3137255E-1,1.6628352E0,3.8646218E-1,-1.6471238E0,-3.678949E-1,1.7186813E0,1.911186E-2,9.4063926E-1,-2.7555555E-1,1.9044799E0,1.1111111E-1,1.120332E0,-7.7894735E-1,1.0179641E0,3.8406375E-1,1.8222222E0,1.3417722E0,-1.8632907E0,-1.352381E0,1.5384616E0,-6.25E-1,1.754386E-1,1.7393616E0,6.666667E-1,-2.6666668E-1,-1.5969357E0,-3.8062283E-1,6.87631E-1,-6.1187214E-1,7.826087E-1,3.87251E-1,-1.9354838E-1,-8.333333E-1,3E-1,-1E-1,1.3882353E0,1.1764706E-1,-1.641161E0,1.3333334E-1,2E-1,-2E-1,-1.1515151E0,1.3333334E-1,7.692308E-1,-5E-1,1.755102E0,2E-1,-1.7032545E0,1.2039409E0,1.6732892E0,-8.588631E-1,9.380531E-1,3.9302325E-1,-1.4994994E0,3.9081633E-1,-4.5454547E-2,1.0227498E0,-6.2111802E-2,-7.647059E-1,1.4097332E0,1.9251157E0,1.8530351E-1,-2.9333335E-1,-1.5348837E0,1.6633663E0,-1.4933838E0,3.8857144E-1,3.7288138E-1,5.3571427E-1,7.058824E-1,3.8596493E-1,1.4492753E-1,3.9080462E-1,-1.8797255E0,3.6666667E-1,3.4385964E-1,-1.5063521E0,-4E-1,3.761194E-1,-3E-1,2.6666668E-1,-1.8666667E-1,5.217391E-1,1.7790369E0,1.04E0,-0E0,2.5454545E-1,-1.8729352E0,1.8740157E0,3.5897437E-1,-7.0866144E-1,-1.5415473E0,1.9605911E0,-3.832168E-1,1.75E0,2.6666668E-1,1.3333334E-1,-2.6666668E-1,4.347826E-1,-2.7368423E-1,1.3333334E-1,-0E0,3.4202898E-1,-2E-1,1.5384616E-1,-3.5812673E-1,2.8E-1,-1.3333334E-1,1.6000001E-1,-2.9565218E-1,-2.857143E-1,2.2222224E-1,-1.6000001E-1,3.7037036E-1,2.5E-1,-2E-1,1E-1,7.2E-1,1.8392857E0,-2.5454545E-1,2.769231E-1,-1.7257212E0,-1.2025203E0,4.255319E-2,3.7511665E-1,1.8222915E0,-8E-1,-9.3408453E-1,3.8036808E-1,-1.2340425E0,1.4754099E0,-1.6363636E0,-7.784431E-1,-1.0344827E0,4.1269842E-1,-7.5555557E-1,1.1913513E0,-2.8292683E-1,3.8709676E-1,1.5384616E-1,-9.1525424E-1,8.5714287E-1,1.5940803E0,1.0357143E0,1.9313282E0,-1.2727273E0,4.1758242E-1,-3.3684212E-1,-4.4444446E-2,-2.2222222E-1,1.8085107E0,-1.6091477E0,-3.0769232E-1,-5.7142857E-2,1.3913044E0,2.5714287E-1,-2.4000001E-1,-7.586207E-1,1.5636364E0,-1.8875061E0,-1.2676057E0,-1.5441177E0,2.2222224E-1,1.3333334E-1,-2.4000001E-1,5.7142857E-2,2.9333335E-1,4E-1,3.597122E-1,1.3333334E-1,2.5641027E-1,8.0000006E-2,-1E-1,-3.8287294E-1,-1.3538462E0,1.5384616E-1,3.864407E-1,-8.786611E-1,3.157895E-1,-1.2090396E0,-3.6818182E-1,1.1724138E0,3.9726028E-1,6.666667E-1,3.768116E-1,1E-1,-3.636364E-2,-3.636364E-2,1.5E-1,-1.8181819E-1,7.692308E-1,1.3333334E-1,-2.2222224E-1,-4.4444445E-1,2.769231E-1,-0E0,2.1176472E-1,-0E0,3.7454545E-1,-1.6622252E0,-1.886991E0,1.5080906E0,-1.6369327E0,3.5151514E-1,-8.7096775E-1,3.8994765E-1,1.4337349E0,-1.8867925E-1,-3.483871E-1,-7.318036E-1,-1.5736678E0,3.3333334E-1,-1.5384616E-1,2E-1,-1.5348837E0,-0E0,1.5606936E0,-1.4716982E0,-1.8967742E0,-4.496124E-1,-3.4285715E-1,-3E-1,1.3333334E-1,-8.333333E-1,1.0697675E0,-2.7272728E-1,-1.12E0,8.516746E-1,2.5666666E-1,-4.6511628E-2,5.882353E-1,2E-1,-1.3333334E-1,-3.2000002E-1,-5.116279E-1,1.0791367E0,-1.8181819E-1,3.2258067E-1,6.666667E-2,1.483871E0,4.4444445E-1,1.9453323E0,1.7927608E0,-0E0,-3.1111112E-1,1.1688311E0,1.2E-1,-2.6666668E-1,2.4000001E-1,3.760479E-1,1.04E0,-3.4923413E-1,8.5714287E-1,-1.2E0,2.4761906E-1,1.8947369E-1,-4E-1,3.3846155E-1,-3.636364E-2,-1.3846154E0,1.5384616E-1,5.882353E-1,3.6190477E-1,-1.8346038E0,-3.8503402E-1,7.692308E-1,-1.6666666E0,-1.3481481E0,-1.650655E0,4.7619048E-1,-8.888889E-2,1.6000001E-1,-4.4444446E-2,1.8181819E-1,-2E-1,-3.457627E-1,-9.866667E-1,-6.7368424E-1,-1.5471698E0,-1.6962025E0,-7.8431374E-1,2.909091E-1,3.636364E-2,-0E0,2.2222224E-1,2.2222224E-1,-0E0,-1.8181819E-1,3.636364E-2,-3.5427788E-1,-3.1706613E-1,-3.79246E-1,-3.402299E-1,1.2830189E-1,3.323077E-1,-3.398085E-1,-2.8496733E-1,-2.1596244E-1,7.1794875E-2,3.8709676E-1,-9.09091E-3,3.157895E-1,-2.1052633E-1,-1.672241E-1,1.4498934E-2,-3.220513E-1,-2.2545455E-1,-9.740933E-2,2.5777778E-1,-3.5789475E-1,4.4444446E-2,2E-1,-1.6000001E-1,-5.714286E-2,3.3619633E-1,-3.2805142E-1,-4.1791048E-2,-3.8943896E-1,3.636364E-2,2.1538463E-1,-1.20000005E-1,-2.6666668E-1,-5E-2,3.157895E-1,1.1428572E-1,-1.3333334E-1,2E-1,-3E-1,-7.272728E-2,-1.3333334E-1,1.8039216E-1,1.3333334E-1,-7.5E-2,-0E0,1.8867925E-1,5.714286E-2,-2.1538463E-1,2.2769232E-1,3.0769233E-2,3.3333335E-2,-1.5384616E-1,1.3333334E-1,3.3333334E-1,1.5813954E-1,-1.3333334E-1,3.9011595E-1,3.3475178E-1,3.62655E-1,1.904762E-1,-1E-1,1E-1,-1.8181819E-1,2.857143E-1,-8.372093E-2,1.0169492E-1,-1.3333334E-1,3.2000002E-1,9.52381E-2,2.5454545E-1,-1.05263166E-1,-3.2000002E-1,-1.6470589E-1,4.8E-2,-3.3043477E-1,8.0000006E-2,-2.5454545E-1,3.2380953E-1,-1E-1,2.1538463E-1,-3.7600753E-1,2.523077E-1,2.1818183E-1,-1E-1,-3.5675678E-1,-3.0769233E-2,-3.0971786E-1,-1.1555556E-1,-3.4709677E-1,-1.6338028E-1,1.5E-1,-4.4444446E-2,1.5384616E-1,-3.54717E-1,-1.8278146E-1,4.651163E-2,-3.478261E-1,-3.636364E-2,-3.6666667E-1,-3.636364E-2,-3.0270272E-1,2E-1],"categories":[],"categories_nodes":[],"categories_segments":[],"categories_sizes":[],"default_left":[true,true,true,true,true,true,true,true,true,true,true,true,true,true,true,true,true,true,true,true,true,true,false,true,true,true,true,true,true,true,true,true,true,true,true,true,true,true,false,true,true,true,false,true,false,true,true,true,false,true,true,true,false,true,false,true,false,true,true,true,false,true,true,true,true,true,true,true,true,true,true,true,false,true,true,true,true,true,true,true,true,true,false,true,true,true,true,true,false,true,true,false,false,true,true,true,true,false,false,true,true,true,true,true,true,true,true,true,true,true,false,true,false,true,true,true,true,true,true,true,false,true,true,true,false,false,true,true,false,true,false,true,false,false,true,true,false,false,false,false,true,true,true,true,false,true,true,false,true,true,true,false,true,false,true,false,true,false,false,true,false,false,false,false,false,false,false,false,true,false,false,true,false,false,false,true,true,false,false,true,true,true,false,true,true,true,true,true,true,true,true,true,true,true,true,false,true,true,true,true,true,true,true,true,true,false,false,true,true,true,true,true,true,false,false,true,true,true,true,true,false,false,false,true,false,true,false,true,false,false,false,false,true,false,false,true,false,true,false,true,false,true,false,false,false,false,false,false,true,false,false,true,false,false,false,false,false,true,true,true,true,false,true,false,true,true,false,true,true,false,true,false,true,true,true,true,true,true,false,false,false,true,true,true,true,true,false,true,true,false,false,false,true,true,true,false,false,true,true,true,true,true,false,true,true,false,false,false,true,false,true,true,false,false,true,false,false,true,true,true,false,true,false,true,true,true,true,true,false,false,false,false,false,false,true,true,true,true,true,false,false,false,false,false,false,false,false,false,false,false,false,false,false,false,false,false,false,false,false,false,false,false,false,false,false,false,false,false,false,false,false,false,false,false,false,false,false,false,false,false,false,false,false,false,false,false,false,false,false,false,false,false,false,false,false,false,false,false,false,false,false,false,false,false,false,false,false,false,false,false,false,false,false,false,false,false,false,false,false,false,false,false,false,false,false,false,false,false,false,false,false,false,false,false,false,false,false,false,false,false,false,false,false,false,false,false,false,false,false],"id":0,"left_children":[1,3,5,7,9,11,13,15,17,19,21,23,25,27,29,31,33,35,37,39,41,43,-1,45,47,49,51,53,55,57,59,61,63,65,67,69,71,73,-1,75,77,79,-1,81,-1,83,85,87,-1,89,91,93,-1,95,-1,97,-1,99,101,103,-1,105,107,109,111,113,115,117,119,121,123,125,-1,127,129,131,133,135,137,139,141,143,-1,145,147,149,151,153,-1,155,157,-1,-1,159,161,163,165,-1,-1,167,169,171,173,175,177,179,181,183,185,187,-1,189,-1,191,193,195,197,199,201,203,-1,205,207,209,-1,-1,211,213,-1,215,-1,217,-1,-1,219,221,-1,-1,-1,-1,223,225,227,229,-1,231,233,-1,235,237,239,-1,241,-1,243,-1,245,-1,-1,247,-1,-1,-1,-1,-1,-1,-1,-1,249,-1,-1,251,-1,-1,-1,253,255,-1,-1,257,259,261,-1,263,265,267,269,271,273,275,277,279,281,283,285,-1,287,289,291,293,295,297,299,301,303,-1,-1,305,307,309,311,313,315,-1,-1,317,319,321,323,325,-1,-1,-1,327,-1,329,-1,331,-1,-1,-1,-1,333,-1,-1,335,-1,337,-1,339,-1,341,-1,-1,-1,-1,-1,-1,343,-1,-1,345,-1,-1,-1,-1,-1,347,349,351,353,-1,355,-1,357,359,-1,361,363,-1,365,-1,367,369,371,373,375,377,-1,-1,-1,379,381,383,385,387,-1,389,391,-1,-1,-1,393,395,397,-1,-1,399,401,403,405,407,-1,409,411,-1,-1,-1,413,-1,415,417,-1,-1,419,-1,-1,421,423,425,-1,427,-1,429,431,433,435,437,-1,-1,-1,-1,-1,-1,439,441,443,445,447,-1,-1,-1,-1,-1,-1,-1,-1,-1,-1,-1,-1,-1,-1,-1,-1,-1,-1,-1,-1,-1,-1,-1,-1,-1,-1,-1,-1,-1,-1,-1,-1,-1,-1,-1,-1,-1,-1,-1,-1,-1,-1,-1,-1,-1,-1,-1,-1,-1,-1,-1,-1,-1,-1,-1,-1,-1,-1,-1,-1,-1,-1,-1,-1,-1,-1,-1,-1,-1,-1,-1,-1,-1,-1,-1,-1,-1,-1,-1,-1,-1,-1,-1,-1,-1,-1,-1,-1,-1,-1,-1,-1,-1,-1,-1,-1,-1,-1,-1,-1,-1,-1,-1,-1,-1,-1,-1,-1,-1,-1],"loss_changes":[3.0527422E3,2.2226416E3,6.637068E2,2.7871992E3,1.6821973E2,8.9040137E2,6.744429E2,3.418018E4,4.3746204E2,2.1225044E3,1.3301033E1,7.570629E2,4.735327E1,1.4734573E2,8.903296E1,2.8080156E3,3.8662207E2,2.4265128E2,1.4440063E1,1.962793E2,8.611719E1,6.432371E0,0E0,6.418396E2,1.5890015E1,1.5782268E1,6.619934E0,1.4559573E2,6.222725E0,9.197723E0,5.482178E-1,2.5249453E3,4.3440112E2,6.847966E1,2.5169824E2,1.5944952E2,1.7956543E1,7.68161E0,0E0,6.454492E1,2.5693941E1,2.9730408E1,0E0,9.619047E0,0E0,8.9313416E1,7.499632E1,3.7341614E0,0E0,1.1432638E0,5.0555553E0,4.277069E0,0E0,8.856934E0,0E0,4E0,0E0,3.642424E0,4.396682E0,8.455841E0,0E0,2.1004297E3,1.7557122E3,4.192169E1,1.3098134E3,2.2211624E1,5.8253446E0,3.694043E1,9.753568E0,8.942595E1,3.261839E2,1.6043427E1,0E0,8.09729E0,7.207776E1,1.6120605E2,1.3915417E2,1.3684959E1,1.5708334E1,5.9585047E0,3.366272E0,2.1212122E0,0E0,4.0993323E2,5.283289E1,6.798031E2,1.7200404E2,1.8782609E0,0E0,6.129967E0,5.7280707E0,0E0,0E0,9.496334E0,3.8642533E0,4.5577423E1,2.5333333E0,0E0,0E0,1.9115372E0,4.311111E0,1.4066949E0,2.5E0,4.01297E0,1.0485314E1,1.4259375E2,1.9785461E2,1.2666455E2,1.3195386E2,6.776697E1,0E0,2.3373169E1,0E0,1.0395705E1,7.668094E1,2.5002077E1,2.4916792E0,1.4856201E1,1.8585938E1,2.703238E1,0E0,1.7328987E0,1.4222855E1,1.7657532E1,0E0,0E0,1.4282298E1,1.0936134E1,0E0,4.541079E1,0E0,9.922852E0,0E0,0E0,2.8948853E1,4E0,0E0,0E0,0E0,0E0,4.9648027E0,4.032776E0,2.5723076E0,9E-1,0E0,5.8706055E0,5.547333E-1,0E0,2.608205E1,6.459137E0,7.564697E-1,0E0,1.648552E0,0E0,5.2424246E-1,0E0,1.2539525E0,0E0,0E0,4.195804E0,0E0,0E0,0E0,0E0,0E0,0E0,0E0,0E0,3.4920633E0,0E0,0E0,6.1937323E0,0E0,0E0,0E0,1.5247056E0,3.4444885E0,0E0,0E0,1.2286719E2,6.565827E2,1.4880144E2,0E0,1.3088257E1,1.1187827E1,1.7107947E2,5.6259865E1,9.431963E0,5.756653E0,6.1705933E0,1.2077122E1,6.7413793E0,1.3786452E1,3.653738E0,6.132263E0,0E0,2.7310357E0,2.9230769E0,3.2580214E0,9.883209E0,2.2685547E0,6.759985E0,3.6904297E0,3.9595966E0,1.5117602E1,0E0,0E0,8.711111E0,6.3539124E-1,4.213385E1,1.941685E1,6.406015E0,5.7531166E0,0E0,0E0,1.2636605E1,2.2333565E0,1.5517578E0,3.0137234E1,3.4534912E0,0E0,0E0,0E0,2.0507936E0,0E0,1.1111112E0,0E0,4.2060604E0,0E0,0E0,0E0,0E0,2.7688522E0,0E0,0E0,7.145172E0,0E0,7.8254395E0,0E0,1.761756E0,0E0,1.111111E0,0E0,0E0,0E0,0E0,0E0,0E0,8.547008E-1,0E0,0E0,1.4747474E0,0E0,0E0,0E0,0E0,0E0,7.137305E1,2.7294922E0,9.206436E0,3.892456E0,0E0,1.6313354E1,0E0,6.168907E1,2.189672E1,0E0,8.50741E1,3.3950195E0,0E0,2.8749868E1,0E0,5.206583E0,3.6E0,1.0086136E1,2.7859436E1,8.476318E0,8.049851E0,0E0,0E0,0E0,1.416667E0,1.8254938E0,6.181818E0,3.0472717E0,4.5906754E0,0E0,2.7684107E0,4.439512E0,0E0,0E0,0E0,5.1530795E0,1.7323761E0,1.8170164E0,0E0,0E0,1.2042999E0,5.72093E0,1.5058594E0,4.345825E0,1E0,0E0,1.1688313E1,1.067456E1,0E0,0E0,0E0,7.04E0,0E0,5.0216436E-1,1.515789E0,0E0,0E0,3.9247057E0,0E0,0E0,6.868227E0,2.2440226E1,2.7986426E0,0E0,1.5461084E2,0E0,3.1993008E0,5.0408783E0,1.473967E1,1.0729523E1,1.170635E0,0E0,0E0,0E0,0E0,0E0,0E0,2.7272064E1,1.0553299E1,3.1565342E0,3.7681236E0,3.4692104E1,0E0,0E0,0E0,0E0,0E0,0E0,0E0,0E0,0E0,0E0,0E0,0E0,0E0,0E0,0E0,0E0,0E0,0E0,0E0,0E0,0E0,0E0,0E0,0E0,0E0,0E0,0E0,0E0,0E0,0E0,0E0,0E0,0E0,0E0,0E0,0E0,0E0,0E0,0E0,0E0,0E0,0E0,0E0,0E0,0E0,0E0,0E0,0E0,0E0,0E0,0E0,0E0,0E0,0E0,0E0,0E0,0E0,0E0,0E0,0E0,0E0,0E0,0E0,0E0,0E0,0E0,0E0,0E0,0E0,0E0,0E0,0E0,0E0,0E0,0E0,0E0,0E0,0E0,0E0,0E0,0E0,0E0,0E0,0E0,0E0,0E0,0E0,0E0,0E0,0E0,0E0,0E0,0E0,0E0,0E0,0E0,0E0,0E0,0E0,0E0,0E0,0E0,0E0,0E0,0E0,0E0,0E0,0E0,0E0,0E0],"parents":[2147483647,0,0,1,1,2,2,3,3,4,4,5,5,6,6,7,7,8,8,9,9,10,10,11,11,12,12,13,13,14,14,15,15,16,16,17,17,18,18,19,19,20,20,21,21,23,23,24,24,25,25,26,26,27,27,28,28,29,29,30,30,31,31,32,32,33,33,34,34,35,35,36,36,37,37,39,39,40,40,41,41,43,43,45,45,46,46,47,47,49,49,50,50,51,51,53,53,55,55,57,57,58,58,59,59,61,61,62,62,63,63,64,64,65,65,66,66,67,67,68,68,69,69,70,70,71,71,73,73,74,74,75,75,76,76,77,77,78,78,79,79,80,80,81,81,83,83,84,84,85,85,86,86,87,87,89,89,90,90,93,93,94,94,95,95,96,96,99,99,100,100,101,101,102,102,103,103,104,104,105,105,106,106,107,107,108,108,109,109,111,111,113,113,114,114,115,115,116,116,117,117,118,118,119,119,121,121,122,122,123,123,126,126,127,127,129,129,131,131,134,134,135,135,140,140,141,141,142,142,143,143,145,145,146,146,148,148,149,149,150,150,152,152,154,154,156,156,159,159,168,168,171,171,175,175,176,176,179,179,180,180,181,181,183,183,184,184,185,185,186,186,187,187,188,188,189,189,190,190,191,191,192,192,193,193,194,194,196,196,197,197,198,198,199,199,200,200,201,201,202,202,203,203,204,204,207,207,208,208,209,209,210,210,211,211,212,212,215,215,216,216,217,217,218,218,219,219,223,223,225,225,227,227,232,232,235,235,237,237,239,239,241,241,248,248,251,251,257,257,258,258,259,259,260,260,262,262,264,264,265,265,267,267,268,268,270,270,272,272,273,273,274,274,275,275,276,276,277,277,281,281,282,282,283,283,284,284,285,285,287,287,288,288,292,292,293,293,294,294,297,297,298,298,299,299,300,300,301,301,303,303,304,304,308,308,310,310,311,311,314,314,317,317,318,318,319,319,321,321,323,323,324,324,325,325,326,326,327,327,334,334,335,335,336,336,337,337,338,338],"right_children":[2,4,6,8,10,12,14,16,18,20,22,24,26,28,30,32,34,36,38,40,42,44,-1,46,48,50,52,54,56,58,60,62,64,66,68,70,72,74,-1,76,78,80,-1,82,-1,84,86,88,-1,90,92,94,-1,96,-1,98,-1,100,102,104,-1,106,108,110,112,114,116,118,120,122,124,126,-1,128,130,132,134,136,138,140,142,144,-1,146,148,150,152,154,-1,156,158,-1,-1,160,162,164,166,-1,-1,168,170,172,174,176,178,180,182,184,186,188,-1,190,-1,192,194,196,198,200,202,204,-1,206,208,210,-1,-1,212,214,-1,216,-1,218,-1,-1,220,222,-1,-1,-1,-1,224,226,228,230,-1,232,234,-1,236,238,240,-1,242,-1,244,-1,246,-1,-1,248,-1,-1,-1,-1,-1,-1,-1,-1,250,-1,-1,252,-1,-1,-1,254,256,-1,-1,258,260,262,-1,264,266,268,270,272,274,276,278,280,282,284,286,-1,288,290,292,294,296,298,300,302,304,-1,-1,306,308,310,312,314,316,-1,-1,318,320,322,324,326,-1,-1,-1,328,-1,330,-1,332,-1,-1,-1,-1,334,-1,-1,336,-1,338,-1,340,-1,342,-1,-1,-1,-1,-1,-1,344,-1,-1,346,-1,-1,-1,-1,-1,348,350,352,354,-1,356,-1,358,360,-1,362,364,-1,366,-1,368,370,372,374,376,378,-1,-1,-1,380,382,384,386,388,-1,390,392,-1,-1,-1,394,396,398,-1,-1,400,402,404,406,408,-1,410,412,-1,-1,-1,414,-1,416,418,-1,-1,420,-1,-1,422,424,426,-1,428,-1,430,432,434,436,438,-1,-1,-1,-1,-1,-1,440,442,444,446,448,-1,-1,-1,-1,-1,-1,-1,-1,-1,-1,-1,-1,-1,-1,-1,-1,-1,-1,-1,-1,-1,-1,-1,-1,-1,-1,-1,-1,-1,-1,-1,-1,-1,-1,-1,-1,-1,-1,-1,-1,-1,-1,-1,-1,-1,-1,-1,-1,-1,-1,-1,-1,-1,-1,-1,-1,-1,-1,-1,-1,-1,-1,-1,-1,-1,-1,-1,-1,-1,-1,-1,-1,-1,-1,-1,-1,-1,-1,-1,-1,-1,-1,-1,-1,-1,-1,-1,-1,-1,-1,-1,-1,-1,-1,-1,-1,-1,-1,-1,-1,-1,-1,-1,-1,-1,-1,-1,-1,-1,-1],"split_conditions":[1.0007375E2,1E0,1.1198505E2,1.07293335E2,1.2342912E2,1.2834879E2,1.4188509E2,5.023475E-2,1.43525E2,7.17722E-2,1.8156795E2,7.17722E-2,1.1965932E2,1.2683961E-1,1.1221274E2,1.2158E2,7.17722E-2,8.7215936E-5,1.9484938E2,1.5273871E2,7.3768634E-1,8.7215936E-5,3.4285715E-1,1.237025E2,7.3768634E-1,8.7215936E-5,1.43525E2,1.9484938E2,5.0009885E0,7.0001016E0,1.7225244E2,8.7215936E-5,7.3576454E1,1E0,7.3768634E-1,8.4915215E1,5.930706E-2,8.85839E1,3.9312124E-1,8.7215936E-5,8.9404526E1,8.804459E-2,-1.9636364E-1,9.1372E1,2.5E-1,8.7215936E-5,1E0,8.804459E-2,-8.0000006E-2,1.0776559E2,1.0948828E2,1E0,3.793953E-1,5.930706E-2,3.5932204E-1,1.19274445E2,3.7E-1,8.7215936E-5,1E0,1E0,3.8646218E-1,1.637E2,1.9607844E-2,1.5867827E2,2.104427E2,1.003451E0,6.405E1,8.804459E-2,1E0,8.771E1,2.104427E2,1.724138E-2,3.8406375E-1,1.003451E0,2.104427E2,2.2170499E2,1.724138E-2,1.6912305E2,2.104427E2,1.9822657E1,6.416141E-1,4.000023E0,-2.6666668E-1,2.104427E2,1.724138E-2,2.104427E2,2.104427E2,7.698228E1,3.87251E-1,1.003451E0,1.1922E2,3E-1,-1E-1,2.000556E0,4.000023E0,2.104427E2,3.0021243E0,2E-1,-2E-1,9.311E1,2.727054E-2,8.7215936E-5,1.0895E2,1.003451E0,3.0021243E0,1.2096E2,1.9670157E2,1.3E1,1.2452E2,1.003451E0,3.9302325E-1,1.6912305E2,3.9081633E-1,4.000658E0,3.0007164E0,4.000658E0,1.9025722E0,5.0009885E0,2.016289E0,4.000658E0,-2.9333335E-1,6.0055313E0,1.003451E0,1.6912305E2,3.8857144E-1,3.7288138E-1,1.4351E2,8.7735615E0,3.8596493E-1,4.000023E0,3.9080462E-1,1.5341E2,3.6666667E-1,3.4385964E-1,1.8545E2,1.4979E2,3.761194E-1,-3E-1,2.6666668E-1,-1.8666667E-1,8.001979E0,2.016289E0,3.609964E1,2.536158E0,2.5454545E-1,1.5341E2,2.2170499E2,3.5897437E-1,2.104427E2,2.9994152E0,2.2170499E2,-3.832168E-1,2.2170499E2,2.6666668E-1,2.770619E0,-2.6666668E-1,1.0134E2,-2.7368423E-1,1.3333334E-1,1.3515591E2,3.4202898E-1,-2E-1,1.5384616E-1,-3.5812673E-1,2.8E-1,-1.3333334E-1,1.6000001E-1,-2.9565218E-1,4.1742525E0,2.2222224E-1,-1.6000001E-1,1.1002926E1,2.5E-1,-2E-1,1E-1,7.0001016E0,3.0007164E0,-2.5454545E-1,2.769231E-1,1E0,6.053E1,7.125412E1,3.7511665E-1,9E0,1.516351E1,1E0,6.3048332E1,5.304394E1,4.000658E0,7.6992316E0,1E0,8.899611E1,3.6793808E1,3E0,5.0009885E0,-2.8292683E-1,6.000429E0,3.480699E0,4.000658E0,5E0,1.3E1,2E0,1E0,1.4861539E1,6E0,-3.3684212E-1,-4.4444446E-2,1.4188509E2,1E0,1.4922682E2,1.1956333E2,4.707021E0,1E0,2.5714287E-1,-2.4000001E-1,8.001979E0,1.338325E2,4.2236843E1,7.324333E1,3.4473385E1,2.2222224E-1,1.3333334E-1,-2.4000001E-1,5.801499E0,2.9333335E-1,2E0,3.597122E-1,1.9626364E1,2.5641027E-1,8.0000006E-2,-1E-1,-3.8287294E-1,1.03391655E2,1.5384616E-1,3.864407E-1,9.673671E0,3.157895E-1,6.000429E0,-3.6818182E-1,6.6017675E0,3.9726028E-1,1.1439391E2,3.768116E-1,1E-1,-3.636364E-2,-3.636364E-2,1.5E-1,-1.8181819E-1,4.572069E0,1.3333334E-1,-2.2222224E-1,1.9247545E2,2.769231E-1,-0E0,2.1176472E-1,-0E0,3.7454545E-1,3.267E1,1.035E2,1.2452E2,1.4662E2,3.5151514E-1,1.1602858E2,3.8994765E-1,1.724138E-2,1.3979727E-2,-3.483871E-1,4.3502193E-2,4.3502193E-2,3.3333334E-1,1.8545E2,2E-1,8.7215936E-5,3.1355947E1,6.461171E1,8.7215936E-5,1.2142144E2,2.35165E1,-3.4285715E-1,-3E-1,1.3333334E-1,9.055299E0,4.485E1,1.1602858E2,9.300441E1,4.0857606E0,2.5666666E-1,1.948E1,2.487E1,2E-1,-1.3333334E-1,-3.2000002E-1,8.7E1,1.11959755E2,5.741E1,3.2258067E-1,6.666667E-2,1.2683961E-1,9.602202E1,6.785714E-1,6.785714E-1,1.032E1,-3.1111112E-1,1.223E1,8.501919E1,-2.6666668E-1,2.4000001E-1,3.760479E-1,1.3048E2,-3.4923413E-1,1.2452E2,7.290057E1,2.4761906E-1,1.8947369E-1,3.3435237E-2,3.3846155E-1,-3.636364E-2,8.7215936E-5,2.9455258E-2,8.101717E1,3.6190477E-1,7.775E1,-3.8503402E-1,1.03E2,2.104427E2,3.022263E1,5.023475E-2,8.771E1,-8.888889E-2,1.6000001E-1,-4.4444446E-2,1.8181819E-1,-2E-1,-3.457627E-1,4.7E1,5.023475E-2,3.653376E-2,3.231082E-2,8.7215936E-5,2.909091E-1,3.636364E-2,-0E0,2.2222224E-1,2.2222224E-1,-0E0,-1.8181819E-1,3.636364E-2,-3.5427788E-1,-3.1706613E-1,-3.79246E-1,-3.402299E-1,1.2830189E-1,3.323077E-1,-3.398085E-1,-2.8496733E-1,-2.1596244E-1,7.1794875E-2,3.8709676E-1,-9.09091E-3,3.157895E-1,-2.1052633E-1,-1.672241E-1,1.4498934E-2,-3.220513E-1,-2.2545455E-1,-9.740933E-2,2.5777778E-1,-3.5789475E-1,4.4444446E-2,2E-1,-1.6000001E-1,-5.714286E-2,3.3619633E-1,-3.2805142E-1,-4.1791048E-2,-3.8943896E-1,3.636364E-2,2.1538463E-1,-1.20000005E-1,-2.6666668E-1,-5E-2,3.157895E-1,1.1428572E-1,-1.3333334E-1,2E-1,-3E-1,-7.272728E-2,-1.3333334E-1,1.8039216E-1,1.3333334E-1,-7.5E-2,-0E0,1.8867925E-1,5.714286E-2,-2.1538463E-1,2.2769232E-1,3.0769233E-2,3.3333335E-2,-1.5384616E-1,1.3333334E-1,3.3333334E-1,1.5813954E-1,-1.3333334E-1,3.9011595E-1,3.3475178E-1,3.62655E-1,1.904762E-1,-1E-1,1E-1,-1.8181819E-1,2.857143E-1,-8.372093E-2,1.0169492E-1,-1.3333334E-1,3.2000002E-1,9.52381E-2,2.5454545E-1,-1.05263166E-1,-3.2000002E-1,-1.6470589E-1,4.8E-2,-3.3043477E-1,8.0000006E-2,-2.5454545E-1,3.2380953E-1,-1E-1,2.1538463E-1,-3.7600753E-1,2.523077E-1,2.1818183E-1,-1E-1,-3.5675678E-1,-3.0769233E-2,-3.0971786E-1,-1.1555556E-1,-3.4709677E-1,-1.6338028E-1,1.5E-1,-4.4444446E-2,1.5384616E-1,-3.54717E-1,-1.8278146E-1,4.651163E-2,-3.478261E-1,-3.636364E-2,-3.6666667E-1,-3.636364E-2,-3.0270272E-1,2E-1],"split_indices":[8,2,8,6,6,6,6,14,4,14,4,14,4,14,4,4,14,14,4,4,14,14,0,4,14,14,4,4,11,11,4,14,8,1,14,8,14,8,0,14,8,14,0,8,0,14,1,14,0,8,8,1,0,14,0,8,0,14,1,1,0,0,14,0,0,3,0,14,14,0,0,14,0,3,0,0,14,0,0,0,14,3,0,0,14,0,0,0,0,3,0,0,0,3,3,0,3,0,0,0,14,14,0,3,3,0,0,11,0,3,0,0,0,11,11,11,3,11,11,11,0,3,3,0,0,0,0,11,0,3,0,0,0,0,0,0,0,0,0,0,11,11,0,3,0,0,0,0,0,3,0,0,0,0,3,0,0,0,0,0,0,0,0,0,0,0,0,0,11,0,0,11,0,0,0,11,11,0,0,1,6,6,0,11,11,1,6,6,11,11,1,6,6,11,11,0,11,11,11,11,11,11,1,6,11,0,0,6,1,6,6,11,1,0,0,11,6,6,6,6,0,0,0,11,0,11,0,6,0,0,0,0,6,0,0,11,0,11,0,11,0,6,0,0,0,0,0,0,11,0,0,6,0,0,0,0,0,0,0,0,0,0,7,0,14,14,0,14,14,0,0,0,14,7,0,14,7,7,0,0,0,0,0,7,7,0,0,0,0,0,0,0,7,7,0,0,0,14,7,14,14,0,0,0,7,0,0,0,0,0,0,7,0,0,14,0,0,14,14,7,0,0,0,7,0,0,14,0,0,0,0,0,0,0,7,14,14,14,14,0,0,0,0,0,0,0,0,0,0,0,0,0,0,0,0,0,0,0,0,0,0,0,0,0,0,0,0,0,0,0,0,0,0,0,0,0,0,0,0,0,0,0,0,0,0,0,0,0,0,0,0,0,0,0,0,0,0,0,0,0,0,0,0,0,0,0,0,0,0,0,0,0,0,0,0,0,0,0,0,0,0,0,0,0,0,0,0,0,0,0,0,0,0,0,0,0,0,0,0,0,0,0,0,0,0,0,0,0,0],"split_type":[0,0,0,0,0,0,0,0,0,0,0,0,0,0,0,0,0,0,0,0,0,0,0,0,0,0,0,0,0,0,0,0,0,0,0,0,0,0,0,0,0,0,0,0,0,0,0,0,0,0,0,0,0,0,0,0,0,0,0,0,0,0,0,0,0,0,0,0,0,0,0,0,0,0,0,0,0,0,0,0,0,0,0,0,0,0,0,0,0,0,0,0,0,0,0,0,0,0,0,0,0,0,0,0,0,0,0,0,0,0,0,0,0,0,0,0,0,0,0,0,0,0,0,0,0,0,0,0,0,0,0,0,0,0,0,0,0,0,0,0,0,0,0,0,0,0,0,0,0,0,0,0,0,0,0,0,0,0,0,0,0,0,0,0,0,0,0,0,0,0,0,0,0,0,0,0,0,0,0,0,0,0,0,0,0,0,0,0,0,0,0,0,0,0,0,0,0,0,0,0,0,0,0,0,0,0,0,0,0,0,0,0,0,0,0,0,0,0,0,0,0,0,0,0,0,0,0,0,0,0,0,0,0,0,0,0,0,0,0,0,0,0,0,0,0,0,0,0,0,0,0,0,0,0,0,0,0,0,0,0,0,0,0,0,0,0,0,0,0,0,0,0,0,0,0,0,0,0,0,0,0,0,0,0,0,0,0,0,0,0,0,0,0,0,0,0,0,0,0,0,0,0,0,0,0,0,0,0,0,0,0,0,0,0,0,0,0,0,0,0,0,0,0,0,0,0,0,0,0,0,0,0,0,0,0,0,0,0,0,0,0,0,0,0,0,0,0,0,0,0,0,0,0,0,0,0,0,0,0,0,0,0,0,0,0,0,0,0,0,0,0,0,0,0,0,0,0,0,0,0,0,0,0,0,0,0,0,0,0,0,0,0,0,0,0,0,0,0,0,0,0,0,0,0,0,0,0,0,0,0,0,0,0,0,0,0,0,0,0,0,0,0,0,0,0,0,0,0,0,0,0,0,0,0,0,0,0,0,0,0,0,0,0,0,0,0,0,0,0],"sum_hessian":[2.563225E4,2.376E4,1.87225E3,2.061425E4,3.14575E3,1.18325E3,6.89E2,1.9822E4,7.9225E2,3.122E3,2.375E1,9.1775E2,2.655E2,1.3125E2,5.5775E2,1.5531E4,4.291E3,3.27E2,4.6525E2,2.909E3,2.13E2,1.075E1,1.3E1,7.8575E2,1.32E2,1.975E1,2.4575E2,1.1025E2,2.1E1,2.175E1,5.36E2,1.486075E4,6.7025E2,3.28E2,3.963E3,2.245E2,1.025E2,1.755E2,2.8975E2,2.8835E3,2.55E1,2.0025E2,1.275E1,7.75E0,3E0,4.945E2,2.9125E2,1.2925E2,2.75E0,1.175E1,8E0,2.35E1,2.2225E2,9.65E1,1.375E1,2E0,1.9E1,1E1,1.175E1,6.425E1,4.7175E2,1.311125E4,1.7495E3,2.265E2,4.4375E2,2.7275E2,5.525E1,3.883E3,8E1,5.925E1,1.6525E2,4.075E1,6.175E1,7.775E1,9.775E1,2.59575E3,2.8775E2,1.85E1,7E0,1.325E1,1.87E2,4.25E0,3.5E0,4.2325E2,7.125E1,2.375E2,5.375E1,4.75E0,1.245E2,6.75E0,5E0,7E0,1E0,2.025E1,3.25E0,9.375E1,2.75E0,1E0,1E0,7.25E0,2.75E0,8.75E0,3E0,6.025E1,4E0,1.28585E4,2.5275E2,3.3875E2,1.41075E3,5.55E1,1.71E2,2.4875E2,1.95E2,2.1E1,2.5175E2,3.925E1,1.6E1,1.5825E2,3.72475E3,7.725E1,2.75E0,9.75E0,4.95E1,1.3125E2,3.4E1,1.375E1,2.7E1,7.5E0,7.025E1,3.35E1,6.425E1,2.58475E3,1.1E1,1.325E1,2.745E2,2.75E0,1.575E1,5E0,2E0,2.75E0,1.05E1,1.755E2,1.15E1,2.5E0,1.75E0,3.925E2,3.075E1,8.75E0,6.25E1,8.625E1,1.5125E2,3.475E1,1.9E1,2E0,2.75E0,2E0,4.75E0,3.75E0,1.25E0,4E0,1.625E1,1E0,2.25E0,8.975E1,4E0,1.25E0,1.5E0,4.75E0,2.5E0,1.25E0,1.5E0,5.75E0,3E0,2E0,1E0,5.25E0,5.5E1,1.75E0,2.25E0,1.2304E4,5.545E2,9.3E1,1.5975E2,3.1975E2,1.9E1,1.33025E3,8.05E1,1.075E1,4.475E1,2.08E2,4.075E1,6.25E0,1.475E1,2.15E1,2.3025E2,9.25E0,3E1,2.25E0,1.375E1,4.1E1,1.1725E2,2.7E1,3.69775E3,1E1,6.725E1,8.5E0,1.25E0,3.5E0,4.6E1,1.1925E2,1.2E1,1.65E1,1.05E1,6E0,1.5E0,2.075E1,1.275E1,2.55025E3,3.45E1,2.71E2,3.5E0,1.25E0,1.5E0,7.75E0,2.75E0,2.75E0,1.7275E2,2.75E0,8.75E0,1.5E0,1E0,3.61E2,3.15E1,2.25E0,2.85E1,5.875E1,3.75E0,4.325E1,4.3E1,6.25E0,1.45E2,2.75E0,1.625E1,1E0,1.75E0,1.75E0,3E0,1.75E0,2.25E0,1.25E0,1.25E0,3.5E0,2.25E0,2E0,3.25E0,1E0,5.4E1,8.83625E3,3.46775E3,7.625E1,4.7825E2,3.2E1,6.1E1,2.3775E2,8.2E1,1.225E1,6.75E0,1.01225E3,3.18E2,2.3E1,5.75E1,1E0,9.75E0,2.5E0,4.225E1,1.315E2,7.65E1,3.125E1,9.5E0,5E0,1.25E0,5E0,9.75E0,1E1,1.15E1,5.125E1,1.79E2,9.75E0,2.025E1,1E0,1.25E0,4E0,9.75E0,3.375E1,7.25E0,1.1525E2,2E0,1.45E1,1.25E1,3.3465E3,3.5125E2,2E0,8E0,1.825E1,4.9E1,2E0,1.5E0,4.075E1,5.25E0,1.1325E2,6E0,7.75E0,4.25E0,3.75E0,1.275E1,8.75E0,1.75E0,1.2E1,8.75E0,3.25E0,9.5E0,1.08125E3,1.469E3,5.5E0,2.9E1,1.0025E2,1.7075E2,4.25E0,3.5E0,1.5E0,1.25E0,1.75E0,1E0,1.375E1,1.775E1,4.65E1,1.225E1,1.875E1,2.45E1,4.5E0,1.75E0,1.5E0,1.25E0,1.25E0,1E0,1.75E0,1.75E0,3.64275E3,5.1935E3,3.29475E3,1.73E2,1.225E1,6.4E1,3.645E2,1.1375E2,5.225E1,8.75E0,6.1E1,2.1E1,3.75E0,8.5E0,8.96E2,1.1625E2,2.915E2,2.65E1,4.725E1,1.025E1,8.5E0,1.25E0,1E0,1.5E0,2.5E0,3.975E1,1.1575E2,1.575E1,7.475E1,1.75E0,2.25E0,2.9E1,2E0,3E0,3.75E0,6E0,8E0,2E0,7E0,4.5E0,1.25E0,5E1,2.75E0,7E0,8E0,1.225E1,4.25E0,5.5E0,3.15E1,2.25E0,5E0,2.25E0,3.5E0,1.1E1,9.75E0,2.75E0,3.277E3,6.95E1,3.4175E2,9.5E0,1E0,1E0,1.75E0,1.65E1,2.05E1,2.85E1,1.25E0,4E0,4.25E0,1.75E0,3.75E0,4E0,7.5E0,5.25E0,1.05E1,1.5E0,4.5E0,4.25E0,1E0,2.25E0,1.066E3,1.525E1,4.5E0,1E0,2.675E1,2.25E0,7.875E1,2.15E1,1.54E2,1.675E1,3E0,1.25E0,5.5E0,1.225E1,3.675E1,9.75E0,1.05E1,1.75E0,1.7E1,1.75E0,1.75E1,7E0],"tree_param":{"num_deleted":"0","num_feature":"15","num_nodes":"449","size_leaf_vector":"0"}},{"base_weights":[-5.534974E-1,-1.114998E0,1.44807E0,-1.3513268E0,1.188793E0,8.287588E-1,1.6273825E0,-1.4041653E0,-6.0762984E-1,1.7758024E-1,1.4751282E0,1.0379635E0,-1.0777808E-1,3.0306095E-1,1.6489189E0,-1.4350405E0,1.2638535E0,-1.1932403E0,3.146091E-1,-9.1406393E-1,3.2911965E-1,4.0277383E-1,3.3048302E-1,1.1165164E0,-1.7444938E-1,-4.2541075E-1,6.2118393E-1,1.6548377E0,1.5052356E0,-1.4059316E0,-1.5810986E0,1.3402131E0,-3.578267E-1,-1.1291549E0,-1.5427681E0,-8.2842416E-1,-2.8338724E-1,5.006825E-1,-5.210447E-1,5.903265E-1,1.7705988E0,-7.762981E-1,1.2957429E0,-1.2600188E0,6.48775E-1,8.800684E-2,1.1287497E0,3.03364E-1,3.3373186E-1,1.1972928E-1,3.175206E-1,-1.4311976E0,-7.8285474E-1,-1.5839202E0,-9.231567E-1,6.223432E-1,1.5629693E0,-2.3863268E-1,2.4844101E-1,-1.1672057E0,1.2622179E-1,-3.1706294E-1,-9.254884E-1,-9.4615895E-1,-1.1544723E-1,2.5174174E-1,8.6365795E-1,-2.7075252E-1,7.3738265E-1,3.507474E-1,1.5448072E0,3.7656263E-1,1.340175E-1,-9.224046E-1,1.9376479E-1,3.5239774E-1,8.129221E-2,-1.3066833E0,2.7240548E-1,1.7199388E0,-4.4544905E-1,-5.577096E-1,3.071873E-1,1.6287426E0,1.8685536E-1,-1.5559995E0,-1.3596348E0,-1.2417803E0,-5.846807E-1,-3.210847E-1,-1.5247687E0,-2.6321903E-1,-6.1283253E-2,7.9815394E-1,-1.0370202E0,1.1997952E0,3.264431E-1,-3.0228183E-1,-9.98954E-1,4.5467332E-1,-1.0799036E0,-2.5295392E-1,1.2773965E-1,-1.1602147E0,1.7537428E-1,-1.7308407E-1,1.4062122E-1,-2.6119876E-1,2.5532934E-1,1.041527E-1,1.1182939E0,2.6621196E-1,-1.3624221E-1,7.423256E-1,-4.2133203E-1,1.0344055E0,3.3422062E-1,3.2784426E-1,-6.364252E-1,-1.0210097E0,2.1113692E-1,-1.2223774E-1,4.2866206E-1,-3.5813546E-1,-6.4988095E-1,-1.23401225E-1,2.0803927E-1,3.5853E-1,1.221373E-1,3.4468755E-1,-8.6367583E-1,-1.3250111E0,4.1977626E-1,3.542511E-1,1.4935672E-2,-4.2997324E-1,9.222182E-1,-3.280735E-1,-1.5390009E0,4.6282384E-1,-1.4884709E0,1.0122368E0,-1.4812769E0,3.6955935E-1,-9.3392205E-1,-2.9244143E-1,-3.0676156E-1,2.547015E-1,-2.4066074E-1,2.7333355E-1,2.0397412E-2,-2.525762E-1,-4.3826204E-2,1.4889774E0,-3.39474E-1,3.836703E-1,-1.1884224E0,2.1897249E-1,2.6748297E-1,-2.9480642E-1,-1.1877744E-3,-9.245122E-1,-1.315001E0,4.0547106E-1,-1.8848208E-1,3.1503847E-1,-2.876088E-1,-1.0291569E0,3.7836663E-2,2.7280277E-1,-2.7009138E-1,1.2080753E0,-2.6134452E-1,1.7232339E-1,3.7760508E-1,-3.117987E-1,3.6969072E-1,1.4883104E-2,1.3548926E0,8.7275304E-2,1.8020003E-1,-1.7469826E-1,8.83512E-3,-5.445732E-1,-3.1969652E-1,2.0072217E-1,-2.9296616E-2,3.295101E-1,-3.10222E-1,-4.6659246E-1,1.1009362E0,4.86913E-2,-2.04602E-1,2.0327662E-1,-3.2558796E-1,3.3619377E-1,-8.6226255E-1,9.673065E-2,-1.4363843E-1,-6.6834763E-3,2.7014408E-1,-3.1413183E-1,-2.941495E-1,-1.5758777E0,-1.3740624E0,2.2885203E-1,2.5806198E-2,-1.5483191E0,-1.1295464E0,-1.236686E0,-5.834793E-1,1.0368639E-1,-1.4886726E-1,-3.762534E-1,1.0723245E-1,5.890183E-3,3.1468174E-1,3.7344027E-2,-1.5023987E-1,-1.0007534E0,-1.4699863E0,1.5210627E-1,-6.122006E-1,-1.3335421E0,3.2237494E-1,-3.0124572E-1,-9.4580734E-1,2.0077367E-1,-4.0318316E-1,-1.970618E-1,2.6872766E-1,-1.1453115E0,6.0245186E-2,3.2792914E-1,-3.3009735E-1,-2.9233888E-1,5.069003E-1,3.219304E-1,9.4491637E-1,2.2542164E-1,-8.854978E-1,3.46668E-1,6.698029E-1,-7.2646506E-2,2.1541218E-1,-9.9376893E-1,2.964531E-1,-1.8241836E-1,8.611124E-2,3.134118E-1,5.508035E-2,-2.5420156E-1,6.1879344E-2,-3.178887E-1,-2.9146096E-1,-3.0098805E-1,-2.5787982E-1,-1.5806321E-2,-3.1633076E-1,-8.3364114E-2,-2.640138E-1,-2.7553388E-1,-1.8198648E-1,-1.7471823E-1,-6.94433E-2,1.0878914E-1,-1.0974901E-1,-2.2064732E-1,-5.792833E-2,-1.5194297E-1,-3.0118898E-1,-2.6379678E-1,8.898589E-3,-3.1639855E-2,-2.8362277E-1,3.7152555E-2,-2.4503182E-1,-1.0594238E-2,-1.8176886E-1,-2.4391165E-1,1.5629397E-1,-3.990729E-2,-2.6703906E-1,3.9738275E-2,-2.1818934E-1,-2.1200906E-1,1.3924566E-1,9.8748796E-2,2.2454052E-1,2.8893945E-1,-3.788572E-2,1.1174636E-1,-2.9988584E-1,2.5814062E-1,2.9796466E-2,1.3457115E-1,-5.2122038E-2,4.65706E-2,-2.3185928E-1],"categories":[],"categories_nodes":[],"categories_segments":[],"categories_sizes":[],"default_left":[false,true,false,true,false,true,true,true,true,true,false,true,true,false,true,false,false,false,false,true,false,true,false,false,true,true,true,true,true,true,true,true,true,false,false,false,false,true,true,true,true,false,true,true,true,false,false,false,false,false,false,true,true,true,true,true,false,false,false,true,true,false,false,true,false,true,false,false,true,false,true,false,true,true,false,false,true,false,true,true,true,true,false,false,true,true,true,false,true,false,true,false,true,true,true,true,false,false,false,true,true,false,false,true,true,false,false,false,false,true,true,false,false,true,true,true,false,false,true,false,false,false,true,false,false,false,false,false,false,false,true,false,true,false,false,false,true,false,true,false,true,true,true,false,true,true,false,false,false,false,true,false,false,true,true,false,false,true,false,false,false,false,true,true,false,false,false,true,false,true,false,true,false,true,false,false,false,false,true,false,false,false,false,true,false,false,false,false,false,true,true,false,false,false,false,false,true,false,false,false,false,false,false,true,true,false,false,false,true,true,true,false,false,true,false,false,false,false,false,false,false,false,true,true,false,false,true,false,false,false,true,false,false,false,true,false,true,false,false,false,true,false,true,false,false,true,false,false,false,false,false,false,false,false,false,false,false,false,false,false,false,false,false,false,false,false,false,false,false,false,false,false,false,false,false,false,false,false,false,false,false,false,false,false,false,false,false,false,false,false,false,false,false,false,false,false,false,false,false],"id":1,"left_children":[1,3,5,7,9,11,13,15,17,19,21,23,25,-1,27,29,31,33,-1,35,-1,37,-1,39,41,43,45,47,49,51,53,55,57,59,61,63,-1,65,67,69,71,73,75,77,79,81,83,-1,-1,-1,-1,85,87,89,91,93,95,-1,-1,97,99,-1,101,103,105,107,109,-1,111,113,115,-1,117,119,-1,-1,121,123,125,127,129,131,-1,133,135,137,139,141,143,-1,145,-1,147,149,151,153,-1,-1,155,157,159,-1,-1,161,163,-1,165,167,-1,169,171,-1,-1,173,175,177,-1,179,181,183,-1,-1,185,-1,187,-1,-1,-1,-1,189,191,193,195,-1,-1,197,199,-1,201,-1,203,205,207,-1,209,211,-1,-1,-1,-1,213,-1,-1,215,217,-1,219,221,-1,-1,-1,223,225,227,-1,-1,229,231,233,235,-1,237,-1,239,-1,-1,-1,-1,241,243,-1,-1,-1,245,-1,-1,-1,-1,-1,247,249,-1,-1,-1,-1,-1,251,-1,-1,-1,-1,-1,-1,253,255,-1,-1,257,259,261,263,-1,-1,265,-1,-1,-1,-1,-1,267,269,-1,271,273,-1,-1,275,-1,277,-1,279,281,-1,-1,283,-1,285,-1,287,289,291,-1,293,295,-1,297,-1,-1,-1,-1,-1,-1,-1,-1,-1,-1,-1,-1,-1,-1,-1,-1,-1,-1,-1,-1,-1,-1,-1,-1,-1,-1,-1,-1,-1,-1,-1,-1,-1,-1,-1,-1,-1,-1,-1,-1,-1,-1,-1,-1,-1,-1,-1,-1,-1,-1,-1,-1,-1],"loss_changes":[2.7908768E4,1.0559508E4,6.0279395E2,6.9028516E2,5.222854E2,2.3983423E2,7.682617E0,1.3544668E3,1.4940474E3,6.4154865E2,2.6669702E2,9.5453E1,5.2202187E1,0E0,5.078125E-1,6.6796875E1,2.3807068E1,1.890332E1,0E0,8.71846E0,0E0,1.842662E1,0E0,3.2229834E2,5.5622818E1,1.4141884E2,1.8433867E1,3.9111328E0,1.0294708E1,2.1210742E2,3.5307617E0,2.7830566E1,1.385965E1,3.7530945E1,2.2116394E0,1.6568665E1,0E0,1.623722E1,2.1679518E1,1.1885843E2,7.657507E1,1.22200985E1,1.0220856E1,6.6914825E0,8.191344E1,3.309723E1,1.6178528E1,0E0,0E0,0E0,0E0,1.1412695E2,4.7479553E1,9.5703125E-1,4.6208324E0,1.3756628E1,1.4820862E0,0E0,0E0,4.248535E1,9.969185E0,0E0,6.8762846E0,4.1107956E1,5.748187E0,5.7862736E1,1.4131435E1,0E0,8.070656E0,1.2688982E2,5.005722E0,0E0,4.3780313E0,9.17292E0,0E0,0E0,1.7355871E0,2.6222672E1,2.9947863E0,1.7435684E0,1.1877562E1,1.899333E1,0E0,4.9026337E0,6.4140053E0,4.267578E0,3.922542E3,8.7313126E1,3.1781165E2,0E0,7.722412E0,0E0,9.757966E0,1.7940369E1,5.878997E-1,1.1937229E1,0E0,0E0,2.8594873E2,3.7661076E0,2.2842212E0,0E0,0E0,4.009033E0,7.6290655E0,0E0,1.43987875E1,1.6977829E1,0E0,5.1768227E0,1.3568779E1,0E0,0E0,1.8132004E2,3.683315E2,7.082361E0,0E0,3.0882678E0,9.989574E-1,1.0145752E1,0E0,0E0,1.6904027E0,0E0,8.148359E1,0E0,0E0,0E0,0E0,8.393341E0,4.3414345E0,1.1593119E1,2.0156574E1,0E0,0E0,2.4267256E0,2.6534543E0,0E0,6.243164E0,0E0,7.783789E1,1.7019539E0,1.6491394E0,0E0,3.387024E1,2.7958283E0,0E0,0E0,0E0,0E0,3.9200804E0,0E0,0E0,2.6407814E0,1.1966599E0,0E0,2.4026001E1,7.9345655E0,0E0,0E0,0E0,6.453631E1,4.5110474E0,1.2050016E1,0E0,0E0,7.37886E0,3.5449448E0,3.239795E1,8.210512E0,0E0,4.1459885E0,0E0,1.0694162E1,0E0,0E0,0E0,0E0,3.362175E0,2.8142552E0,0E0,0E0,0E0,2.2828611E1,0E0,0E0,0E0,0E0,0E0,3.1498823E0,2.2407446E0,0E0,0E0,0E0,0E0,0E0,3.4575157E0,0E0,0E0,0E0,0E0,0E0,0E0,4.9677734E0,3.6539062E1,0E0,0E0,5.6708984E0,3.0844498E0,6.762909E0,1.0184216E1,0E0,0E0,2.0225525E0,0E0,0E0,0E0,0E0,0E0,2.1009644E1,3.7303772E0,0E0,3.3541434E0,4.977371E0,0E0,0E0,1.0145626E1,0E0,1.8906578E0,0E0,9.334004E0,3.191187E0,0E0,0E0,1.8236547E1,0E0,5.7668324E0,0E0,2.2384167E0,9.0666855E1,8.935869E0,0E0,2.3422327E0,2.3918164E0,0E0,4.290016E0,0E0,0E0,0E0,0E0,0E0,0E0,0E0,0E0,0E0,0E0,0E0,0E0,0E0,0E0,0E0,0E0,0E0,0E0,0E0,0E0,0E0,0E0,0E0,0E0,0E0,0E0,0E0,0E0,0E0,0E0,0E0,0E0,0E0,0E0,0E0,0E0,0E0,0E0,0E0,0E0,0E0,0E0,0E0,0E0,0E0,0E0,0E0,0E0,0E0,0E0,0E0,0E0,0E0],"parents":[2147483647,0,0,1,1,2,2,3,3,4,4,5,5,6,6,7,7,8,8,9,9,10,10,11,11,12,12,14,14,15,15,16,16,17,17,19,19,21,21,23,23,24,24,25,25,26,26,27,27,28,28,29,29,30,30,31,31,32,32,33,33,34,34,35,35,37,37,38,38,39,39,40,40,41,41,42,42,43,43,44,44,45,45,46,46,51,51,52,52,53,53,54,54,55,55,56,56,59,59,60,60,62,62,63,63,64,64,65,65,66,66,68,68,69,69,70,70,72,72,73,73,76,76,77,77,78,78,79,79,80,80,81,81,83,83,84,84,85,85,86,86,87,87,88,88,90,90,92,92,93,93,94,94,95,95,98,98,99,99,100,100,103,103,104,104,106,106,107,107,109,109,110,110,113,113,114,114,115,115,117,117,118,118,119,119,122,122,124,124,129,129,130,130,131,131,132,132,135,135,136,136,138,138,140,140,141,141,142,142,144,144,145,145,150,150,153,153,154,154,156,156,157,157,161,161,162,162,163,163,166,166,167,167,168,168,169,169,171,171,173,173,178,178,179,179,183,183,189,189,190,190,196,196,203,203,204,204,207,207,208,208,209,209,210,210,213,213,219,219,220,220,222,222,223,223,226,226,228,228,230,230,231,231,234,234,236,236,238,238,239,239,240,240,242,242,243,243,245,245],"right_children":[2,4,6,8,10,12,14,16,18,20,22,24,26,-1,28,30,32,34,-1,36,-1,38,-1,40,42,44,46,48,50,52,54,56,58,60,62,64,-1,66,68,70,72,74,76,78,80,82,84,-1,-1,-1,-1,86,88,90,92,94,96,-1,-1,98,100,-1,102,104,106,108,110,-1,112,114,116,-1,118,120,-1,-1,122,124,126,128,130,132,-1,134,136,138,140,142,144,-1,146,-1,148,150,152,154,-1,-1,156,158,160,-1,-1,162,164,-1,166,168,-1,170,172,-1,-1,174,176,178,-1,180,182,184,-1,-1,186,-1,188,-1,-1,-1,-1,190,192,194,196,-1,-1,198,200,-1,202,-1,204,206,208,-1,210,212,-1,-1,-1,-1,214,-1,-1,216,218,-1,220,222,-1,-1,-1,224,226,228,-1,-1,230,232,234,236,-1,238,-1,240,-1,-1,-1,-1,242,244,-1,-1,-1,246,-1,-1,-1,-1,-1,248,250,-1,-1,-1,-1,-1,252,-1,-1,-1,-1,-1,-1,254,256,-1,-1,258,260,262,264,-1,-1,266,-1,-1,-1,-1,-1,268,270,-1,272,274,-1,-1,276,-1,278,-1,280,282,-1,-1,284,-1,286,-1,288,290,292,-1,294,296,-1,298,-1,-1,-1,-1,-1,-1,-1,-1,-1,-1,-1,-1,-1,-1,-1,-1,-1,-1,-1,-1,-1,-1,-1,-1,-1,-1,-1,-1,-1,-1,-1,-1,-1,-1,-1,-1,-1,-1,-1,-1,-1,-1,-1,-1,-1,-1,-1,-1,-1,-1,-1,-1,-1],"split_conditions":[3.417865E-4,1.3309666E2,2.057862E-1,1.07224205E2,1.5273871E2,2E0,1.9935137E-4,1.766E2,1.9670157E2,2.104427E2,1.9670157E2,1E0,8.692E1,3.0306095E-1,1E0,1E0,1E0,1E0,3.146091E-1,1E0,3.2911965E-1,1E0,3.3048302E-1,7.26804E-5,7.26804E-5,7.26804E-5,7.26804E-5,7.26804E-5,7.26804E-5,1.2269E2,1.5867827E2,1.9670157E2,2.104427E2,1.8545E2,1.6912305E2,1.766E2,-2.8338724E-1,1.8156795E2,1.9484938E2,1.4662E2,1E0,1.0971612E2,1E0,9.7675E1,2.353133E-1,2.2170499E2,2.353133E-1,3.03364E-1,3.3373186E-1,1.1972928E-1,3.175206E-1,1.9935137E-4,1.9935137E-4,6.747E1,5.002208E0,1.8496386E0,2.104427E2,-2.3863268E-1,2.4844101E-1,1.9935137E-4,2E0,-3.1706294E-1,6.0055313E0,4.000023E0,1.9935137E-4,3.0021243E0,1.9935137E-4,-2.7075252E-1,9.297158E-1,1E0,2.104427E2,3.7656263E-1,8.299E1,1.0001794E0,1.9376479E-1,3.5239774E-1,4.626E1,2.0003898E0,3.0071075E0,4.2974563E0,2.8440783E0,2.0003898E0,3.071873E-1,4.074814E0,4.000023E0,2.001216E1,1E0,6.169875E1,1E0,-3.210847E-1,3.6863335E1,-2.6321903E-1,7.33875E1,8.887857E1,2.0003898E0,9.847E1,3.264431E-1,-3.0228183E-1,1E0,1.0001794E0,2.0003898E0,-2.5295392E-1,1.2773965E-1,1E0,1.90855E0,-1.7308407E-1,9.652843E-1,1.9935137E-4,2.5532934E-1,3.123443E2,2.8412652E0,2.6621196E-1,-1.3624221E-1,1.9935137E-4,1.0001794E0,1.9935137E-4,3.3422062E-1,7.33875E1,3.1007147E1,1E0,2.1113692E-1,-1.2223774E-1,5.8554E1,-3.5813546E-1,3E0,-1.23401225E-1,2.0803927E-1,3.5853E-1,1.221373E-1,2.0003898E0,2.0841398E1,5.721E1,2.8412652E0,3.542511E-1,1.4935672E-2,7.592375E1,2.0003898E0,-3.280735E-1,5.847E1,4.6282384E-1,1.0001794E0,1.3752773E2,1.5341E2,3.6955935E-1,1.0001794E0,4.1962638E-1,-3.0676156E-1,2.547015E-1,-2.4066074E-1,2.7333355E-1,1.8545E2,-2.525762E-1,-4.3826204E-2,1.9935137E-4,6.044451E-1,3.836703E-1,2E0,1E0,2.6748297E-1,-2.9480642E-1,-1.1877744E-3,1.9935137E-4,1.4351E2,1.2096E2,-1.8848208E-1,3.1503847E-1,1.0001794E0,1.8545E2,9.652843E-1,5.4848866E1,-2.7009138E-1,1E0,-2.6134452E-1,1.1439E2,3.7760508E-1,-3.117987E-1,3.6969072E-1,1.4883104E-2,1E0,1.0001794E0,1.8020003E-1,-1.7469826E-1,8.83512E-3,1.9935137E-4,-3.1969652E-1,2.0072217E-1,-2.9296616E-2,3.295101E-1,-3.10222E-1,4.5300217E1,3E0,4.86913E-2,-2.04602E-1,2.0327662E-1,-3.2558796E-1,3.3619377E-1,1.4060051E2,9.673065E-2,-1.4363843E-1,-6.6834763E-3,2.7014408E-1,-3.1413183E-1,-2.941495E-1,9.125439E1,3.143E1,2.2885203E-1,2.5806198E-2,7E0,1.5956622E1,1.4662E2,2.0003437E1,1.0368639E-1,-1.4886726E-1,9.824544E0,1.0723245E-1,5.890183E-3,3.1468174E-1,3.7344027E-2,-1.5023987E-1,2.8003843E1,6E0,1.5210627E-1,1.9005049E1,8.692E1,3.2237494E-1,-3.0124572E-1,7E0,2.0077367E-1,1.4662E2,-1.970618E-1,1.8545E2,1.4662E2,6.0245186E-2,3.2792914E-1,1.1793414E1,-2.9233888E-1,1.0009822E1,3.219304E-1,1.1594849E2,8.070578E-2,1.3907959E1,3.46668E-1,8.070578E-2,8.42E0,2.1541218E-1,8.070578E-2,2.964531E-1,-1.8241836E-1,8.611124E-2,3.134118E-1,5.508035E-2,-2.5420156E-1,6.1879344E-2,-3.178887E-1,-2.9146096E-1,-3.0098805E-1,-2.5787982E-1,-1.5806321E-2,-3.1633076E-1,-8.3364114E-2,-2.640138E-1,-2.7553388E-1,-1.8198648E-1,-1.7471823E-1,-6.94433E-2,1.0878914E-1,-1.0974901E-1,-2.2064732E-1,-5.792833E-2,-1.5194297E-1,-3.0118898E-1,-2.6379678E-1,8.898589E-3,-3.1639855E-2,-2.8362277E-1,3.7152555E-2,-2.4503182E-1,-1.0594238E-2,-1.8176886E-1,-2.4391165E-1,1.5629397E-1,-3.990729E-2,-2.6703906E-1,3.9738275E-2,-2.1818934E-1,-2.1200906E-1,1.3924566E-1,9.8748796E-2,2.2454052E-1,2.8893945E-1,-3.788572E-2,1.1174636E-1,-2.9988584E-1,2.5814062E-1,2.9796466E-2,1.3457115E-1,-5.2122038E-2,4.65706E-2,-2.3185928E-1],"split_indices":[12,4,12,4,4,9,9,0,0,0,0,2,0,0,2,2,2,2,0,2,0,2,0,10,10,10,10,10,10,0,0,0,0,0,0,0,0,4,4,0,10,4,10,4,10,0,10,0,0,0,0,9,9,0,3,9,0,0,0,9,9,0,3,3,9,3,9,0,9,9,0,0,0,9,0,0,0,9,9,9,3,9,0,9,3,13,9,4,9,0,4,0,4,4,9,4,0,0,9,9,9,0,0,9,9,0,9,9,0,4,9,0,0,9,9,9,0,4,13,9,0,0,4,0,9,0,0,0,0,9,4,4,9,0,0,4,9,0,0,0,9,0,0,0,9,9,0,0,0,0,0,0,0,9,9,0,9,9,0,0,0,9,0,0,0,0,9,0,9,0,0,9,0,0,0,0,0,0,9,9,0,0,0,9,0,0,0,0,0,0,9,0,0,0,0,0,0,0,0,0,0,0,0,0,0,0,0,5,5,0,5,0,0,5,0,0,0,0,0,5,5,0,5,0,0,0,5,0,0,0,0,0,0,0,5,0,5,0,0,12,5,0,12,0,0,12,0,0,0,0,0,0,0,0,0,0,0,0,0,0,0,0,0,0,0,0,0,0,0,0,0,0,0,0,0,0,0,0,0,0,0,0,0,0,0,0,0,0,0,0,0,0,0,0,0,0,0,0,0],"split_type":[0,0,0,0,0,0,0,0,0,0,0,0,0,0,0,0,0,0,0,0,0,0,0,0,0,0,0,0,0,0,0,0,0,0,0,0,0,0,0,0,0,0,0,0,0,0,0,0,0,0,0,0,0,0,0,0,0,0,0,0,0,0,0,0,0,0,0,0,0,0,0,0,0,0,0,0,0,0,0,0,0,0,0,0,0,0,0,0,0,0,0,0,0,0,0,0,0,0,0,0,0,0,0,0,0,0,0,0,0,0,0,0,0,0,0,0,0,0,0,0,0,0,0,0,0,0,0,0,0,0,0,0,0,0,0,0,0,0,0,0,0,0,0,0,0,0,0,0,0,0,0,0,0,0,0,0,0,0,0,0,0,0,0,0,0,0,0,0,0,0,0,0,0,0,0,0,0,0,0,0,0,0,0,0,0,0,0,0,0,0,0,0,0,0,0,0,0,0,0,0,0,0,0,0,0,0,0,0,0,0,0,0,0,0,0,0,0,0,0,0,0,0,0,0,0,0,0,0,0,0,0,0,0,0,0,0,0,0,0,0,0,0,0,0,0,0,0,0,0,0,0,0,0,0,0,0,0,0,0,0,0,0,0,0,0,0,0,0,0,0,0,0,0,0,0,0,0,0,0,0,0,0,0,0,0,0,0,0,0,0,0,0,0,0,0,0,0,0,0],"sum_hessian":[2.483005E4,1.939079E4,5.439263E3,1.7587074E4,1.8037139E3,1.2225228E3,4.21674E3,1.6419602E4,1.1674728E3,3.983904E2,1.4053235E3,9.992098E2,2.2331305E2,6.911619E2,3.5255781E3,1.6232219E4,1.8738243E2,9.206809E2,2.4679185E2,2.2870139E2,1.6968904E2,1.9983783E2,1.2054857E3,9.3848413E2,6.072567E1,1.5582945E2,6.7483604E1,3.3759875E3,1.495907E2,1.3543645E4,2.6885745E3,1.7912175E2,8.260675E0,7.816056E2,1.3907533E2,1.9768307E2,3.1018303E1,1.8110219E2,1.873564E1,5.211428E2,4.173413E2,4.342207E1,1.7303602E1,8.759665E1,6.82328E1,3.3483723E1,3.399988E1,3.173854E2,3.058602E3,1.3147591E1,1.364431E2,1.3014604E4,5.2903955E2,2.675692E3,1.2882483E1,4.3317516E1,1.3580423E2,5.594312E0,2.6663632E0,7.5868005E2,2.292551E1,1.2864046E2,1.0434876E1,1.6938522E2,2.8297855E1,1.0843049E2,7.26717E1,1.1229303E1,7.5063367E0,4.176726E2,1.0347026E2,3.9042114E2,2.692015E1,4.0502525E1,2.9195433E0,1.217759E1,5.126012E0,8.515099E1,2.4456592E0,3.419076E1,3.404204E1,2.3581966E1,9.901755E0,2.1733633E1,1.226625E1,4.7354556E3,8.279148E3,1.579644E2,3.7107513E2,1.943159E3,7.325329E2,8.486409E0,4.396074E0,3.963695E1,3.6805654E0,2.4681889E1,1.1112234E2,2.4647252E2,5.122075E2,1.8508354E1,4.417157E0,8.732226E0,1.7026503E0,1.4220877E2,2.717645E1,6.59698E0,2.1700874E1,7.276066E1,3.566983E1,1.8600578E1,5.407112E1,5.3352537E0,2.171083E0,2.7714868E2,1.4052391E2,2.234746E1,8.11228E1,2.1967958E1,4.9521914E0,3.904026E1,1.4622645E0,1.4586738E0,3.667338E0,4.803092E1,3.7120075E1,1.2240746E0,1.2215846E0,3.1509249E1,2.6815126E0,1.1843153E1,2.2198889E1,1.3012196E1,1.0569771E1,1.9779987E1,1.9536458E0,6.8966074E0,5.3696423E0,7.780952E2,3.9573604E3,2.7993243E2,7.999216E3,1.4862249E1,1.4310216E2,4.6049316E1,3.2502582E2,5.5768204E0,7.2695605E2,1.9738765E0,2.4221973E0,2.2461306E1,1.7175646E1,2.4577756E0,1.2227899E0,2.0805782E1,3.876106E0,3.0680784E1,4.8152673E2,1.5592941E1,2.9154124E0,2.9588065E0,1.4583508E0,5.913429E1,8.3074486E1,2.3065628E1,4.110822E0,4.3729863E0,1.7327888E1,1.9707611E1,5.3053047E1,1.73961E1,1.2044785E0,5.2624626E1,1.4464936E0,1.8584067E2,9.130801E1,9.381509E1,4.6708824E1,5.9016895E0,1.644577E1,1.6284983E1,5.6829753E0,3.462667E0,1.4895244E0,2.2456142E1,1.6584118E1,1.4614335E0,2.2059045E0,1.0225332E1,2.6894743E1,5.8984723E0,5.9446807E0,2.7264194E0,1.947247E1,1.2208465E0,1.1791349E1,5.1713448E0,5.398426E0,1.4912887E0,5.4053187E0,1.9477744E0,3.4218678E0,2.688383E3,1.2689773E3,4.52749E3,3.4717258E3,1.2672381E1,2.1898685E0,1.173353E2,2.576686E1,1.7301828E2,1.5200754E2,1.9430321E0,3.633788E0,9.86185E0,7.313796E0,1.2115226E0,1.959426E1,1.9414208E0,1.9346852E0,2.9167355E2,1.8985318E2,9.492804E0,6.100138E0,5.1330692E1,7.8035975E0,5.2698826E1,3.0375662E1,1.3117434E1,9.9481945E0,7.345211E0,9.982677E0,1.8253063E1,1.4545474E0,9.264309E0,4.378874E1,1.4450854E0,1.5951014E1,1.8807703E1,3.381692E1,1.777074E2,8.133277E0,9.608108E0,6.8376627E0,1.48174925E1,1.4674906E0,1.8799435E1,3.656708E0,3.9301915E0,1.9682809E0,3.2253253E0,2.7193553E0,3.9393508E0,1.4590752E0,4.0515515E3,4.759387E2,1.3570852E3,2.1146406E3,2.6777928E0,1.146575E2,6.1074142E0,1.9659445E1,1.1862096E2,5.439732E1,6.7017654E1,8.498988E1,1.2168427E0,8.645007E0,2.5445139E2,3.7222164E1,1.021468E1,1.796385E2,2.4522831E0,3.647855E0,3.6382637E0,4.769243E1,6.080481E0,2.4295181E1,6.530229E0,3.4179654E0,2.2047284E0,7.777949E0,3.3948407E0,1.4858223E1,2.6269999E1,1.751874E1,1.2237592E0,1.4727255E1,1.06266365E1,2.3190285E1,4.448379E1,1.332236E2,2.4529047E0,5.680372E0,2.4448297E0,4.3928328E0,2.4642124E0,1.235328E1,2.1869037E0,1.6612532E1],"tree_param":{"num_deleted":"0","num_feature":"15","num_nodes":"299","size_leaf_vector":"0"}},{"base_weights":[-4.7896913E-1,-6.156424E-1,1.1345521E0,-9.9435943E-1,1.4401406E0,1.20046E0,6.8247426E-1,-7.312538E-1,-1.1851705E0,1.4461591E0,7.034659E-1,1.2299938E0,6.4970434E-1,7.709378E-1,-6.81458E-2,-1.0808581E0,1.1829659E0,-1.2123119E0,-3.5413665E-1,3.1072447E-1,1.4187192E0,-7.768287E-1,2.7109906E-1,1.0036868E0,1.3496472E0,-4.4851956E-1,8.641839E-1,2.676431E-1,1.0693554E0,-8.920645E-1,2.9329482E-1,-1.16129E0,1.1625164E0,1.2889433E0,9.849784E-1,-1.2651848E0,1.3223398E0,-4.487463E-1,2.714404E-1,1.4216322E0,5.550428E-1,9.609832E-2,-1.1600621E0,-3.138503E-2,2.9248562E-1,6.406791E-1,2.9121864E-1,-9.465526E-1,2.2182487E-1,-1.4832376E-1,2.9350582E-1,-9.224087E-1,2.904725E-1,-5.618285E-1,1.372417E0,-2.74106E-1,1.7132547E-1,-2.3039062E-1,2.7345178E-1,-8.696066E-1,-1.280673E0,3.0416903E-1,9.4491255E-1,1.3507005E0,8.59599E-1,1.0742906E0,4.5342472E-1,-1.0214707E0,-1.356659E0,2.9934224E-1,1.2107383E0,-2.5205383E-1,-1.2068081E0,1.4345574E0,1.2991712E0,1.6789792E-1,-1.2033369E-1,-2.861133E-1,-8.138124E-2,3.1100857E-1,-3.354717E-1,2.9059646E-1,3.87082E-1,-2.4064735E-1,-7.049747E-2,1.906944E-1,-3.778991E-1,2.737145E-1,-1.2037638E0,2.1654172E-1,-9.238997E-1,9.607702E-1,1.4197942E0,-1.1626246E0,1.7582068E0,-1.3096354E0,-9.3979645E-1,-9.501086E-1,2.9051068E-1,1.0969373E0,1.4515898E0,2.0270672E-1,1.2159101E0,1.8052134E-1,1.4298537E0,-7.125809E-1,2.6918432E-1,-1.2728322E0,2.0458186E0,-1.3901329E0,-8.2188785E-1,-1.0663657E0,2.8048432E-1,3.0265078E-1,-4.284582E-1,2.2792605E-1,-2.5754127E-1,8.4914607E-1,1.465087E0,1.9632806E-1,1.3855432E0,-1.007659E0,1.2841023E0,1.2757729E-2,2.7241036E-1,1.5273915E-1,-1.931523E-1,-6.8583715E-1,2.3425817E-1,-3.230187E-1,-2.552023E-1,-1.125967E0,1.76513E-1,-1.2979521E-1,2.6527157E-1,8.888592E-1,2.940546E-1,-1.1705755E0,1.6877373E-1,2.0820212E0,1.6472458E0,-1.3194578E0,7.193131E-1,1.2525693E0,-1.0662799E0,-1.4760774E0,2.8498223E-1,9.623952E-1,3.22923E-1,8.9332163E-1,2.930448E-1,-1.9332059E-1,5.2976495E-1,1.6264002E-1,2.743918E-1,-9.6894586E-1,4.7507668E-1,2.209454E-1,2.917249E-1,-8.306831E-1,1.7596205E-1,-1.280872E0,3.494189E-1,-7.2666705E-2,2.0802662E0,-1.395928E0,3.0212775E-1,7.024838E-1,-1.1441793E0,-3.3307895E-1,2.037112E-1,6.626156E-2,-7.7512515E-1,9.22277E-1,-6.553928E-1,7.359461E-2,2.9316682E-1,4.924783E-1,-2.531185E-1,6.3226394E-2,2.7896273E-1,-1.2493875E0,2.3830369E-1,1.0775671E-1,2.706661E-1,-1.0184383E0,9.027445E-1,-1.1847633E0,8.121768E-1,-2.0177995E-1,6.037357E-2,-3.8529822E-1,-2.9432318E-1,3.8585824E-1,2.349048E-1,-1.3437847E0,3.7790272E-1,-5.107542E-1,2.8084606E-1,5.027078E-1,3.5657492E-1,-2.1243915E-2,1.6807495E0,-2.845325E-1,3.678506E-1,2.385339E-1,2.810248E-1,1.333547E0,-1.6674222E-3,-1.3796237E0,3.4555683E-1,-3.3431235E-1,2.0907183E-1,1.1601238E0,-2.293518E-1,2.2482458E-1,5.333232E-1,3.040508E-1,2.3223975E-1,-2.4744713E-1,2.0787804E-1,-3.4886646E-1,3.147976E-1,-1.032596E0,2.2558795E-1,-1.3680059E0,-1.1666839E0,-1.2214007E-1,8.4093475E-1,2.1386013E0,6.94254E-1,-1.3589833E0,-1.4474747E0,7.4143875E-1,-7.1783304E-1,-7.5026697E-1,8.146097E-1,-1.0446379E0,-1.4247067E0,-3.3301345E-1,9.8861545E-1,-1.4142038E0,-3.077829E-1,2.4005547E-1,-8.136319E-2,1.2809063E-2,-2.1419048E-1,2.3673736E-1,-1.8758713E-1,-3.09206E-1,-9.8226833E-1,-5.179895E-1,-1.3498002E0,3.184287E-1,1.1034745E0,-2.7439767E-1,-4.2964908E-1,2.1608381E-1,2.7772585E-2,-2.244199E-1,2.1738833E-1,-8.617685E-2,2.0434907E-1,-2.7685413E-1,-1.509085E-1,-1.297927E-1,2.915563E-2,6.874921E-2,3.8837454E-1,-1.5386668E-1,1.1354933E-1,3.0984053E-1,-4.067174E-2,3.1852525E-1,-2.8489724E-1,2.3477912E-1,5.3055193E-2,4.9042463E-2,-1.6460256E-1,2.3587652E-1,-1.606476E-1,-1.4465594E-1,7.045018E-2,-9.817163E-2,1.2863551E-1,-2.030173E-2,-2.3649624E-1,-2.504618E-1,-2.8523502E-1,-2.5651103E-1,-6.453818E-2,2.700382E-1,-9.45374E-2,5.0118667E-1,2.4960251E-1,-1.8022202E-1,3.0681512E-1,-2.7430785E-1,-2.3971532E-1,-2.9101512E-1,-2.5891373E-1,2.8647617E-1,3.6013853E-2,-2.890545E-2,-2.2463997E-1,-2.0370817E-1,2.8109629E-2,3.7854898E-1,-3.0561358E-1,3.1000093E-1,-2.4524744E-1,2.858711E-1,-2.9918167E-1,2.599502E-2,2.1715441E-1,-1.9719093E-1,-3.1414303E-1,-2.2395078E-2,-1.7538658E-1,-9.780384E-2,8.825527E-2,-5.9734154E-2,-2.6725975E-1,1.5165447E-1,-1.9361942E-1,-6.8038064E-3,-2.863619E-1,-2.2009814E-1,1.3330057E-1,2.449826E-1,-1.5615489E-1,9.713081E-2,-2.0474434E-1,-1.9248088E-1,2.1477519E-1],"categories":[],"categories_nodes":[],"categories_segments":[],"categories_sizes":[],"default_left":[false,true,true,true,true,true,true,true,true,true,true,false,false,true,true,true,true,true,false,false,true,true,false,false,false,true,false,false,false,true,true,true,true,true,false,true,true,false,false,true,false,false,true,true,false,true,false,false,false,true,false,true,false,false,true,false,false,false,false,true,true,false,false,true,true,false,true,true,true,false,false,true,false,true,true,false,false,false,false,false,true,false,true,false,true,false,true,false,true,false,true,false,true,false,true,false,true,true,false,true,false,false,true,true,true,true,false,true,false,true,false,true,false,false,true,false,false,false,true,false,false,false,false,true,false,false,false,true,false,false,false,true,false,false,false,false,false,false,true,true,true,false,false,true,false,false,false,false,false,true,false,false,true,false,false,true,true,false,false,true,false,true,true,false,true,true,false,true,true,false,false,true,true,true,false,false,false,false,false,false,false,true,false,false,false,true,true,true,true,false,false,false,false,true,false,true,false,false,false,false,false,false,true,false,false,true,false,true,false,false,false,false,false,false,true,false,true,false,true,false,false,true,false,false,false,false,true,false,true,true,false,true,true,true,true,true,true,true,true,false,true,true,true,false,true,false,false,false,false,false,true,true,true,false,true,false,false,false,false,false,false,false,false,false,false,false,false,false,false,false,false,false,false,false,false,false,false,false,false,false,false,false,false,false,false,false,false,false,false,false,false,false,false,false,false,false,false,false,false,false,false,false,false,false,false,false,false,false,false,false,false,false,false,false,false,false,false,false,false,false,false,false,false,false,false,false,false,false,false,false,false,false,false,false,false],"id":2,"left_children":[1,3,5,7,9,11,13,15,17,19,21,23,25,27,29,31,33,35,37,-1,39,41,-1,43,45,47,49,51,53,55,57,59,61,63,65,67,69,71,-1,73,75,-1,77,79,-1,81,-1,83,-1,85,-1,87,-1,89,91,-1,-1,-1,-1,93,95,-1,97,99,101,103,105,107,109,-1,111,113,115,117,119,-1,-1,-1,-1,-1,121,-1,123,-1,125,-1,127,-1,129,-1,131,133,135,137,139,141,143,145,-1,147,149,151,153,155,157,159,-1,161,163,165,167,169,-1,-1,171,-1,-1,173,175,177,179,181,183,185,-1,-1,-1,187,-1,189,-1,191,-1,-1,-1,193,-1,195,197,199,201,203,205,207,209,211,-1,213,-1,215,-1,-1,217,-1,-1,219,221,-1,-1,223,-1,225,227,-1,229,231,233,235,237,-1,-1,239,241,243,245,-1,-1,247,-1,-1,-1,249,-1,-1,-1,251,253,255,257,-1,-1,259,-1,261,-1,263,-1,265,-1,-1,-1,-1,267,-1,-1,269,-1,271,-1,273,-1,-1,-1,275,277,-1,279,-1,281,-1,-1,283,-1,285,-1,287,289,-1,291,293,295,297,299,301,303,305,307,309,311,-1,313,315,317,-1,319,-1,-1,-1,-1,-1,321,323,325,327,329,-1,331,-1,-1,-1,333,-1,-1,-1,-1,-1,-1,-1,-1,-1,-1,-1,-1,-1,-1,-1,-1,-1,-1,-1,-1,-1,-1,-1,-1,-1,-1,-1,-1,-1,-1,-1,-1,-1,-1,-1,-1,-1,-1,-1,-1,-1,-1,-1,-1,-1,-1,-1,-1,-1,-1,-1,-1,-1,-1,-1,-1,-1,-1,-1,-1,-1,-1,-1,-1,-1,-1,-1,-1,-1,-1,-1,-1,-1,-1],"loss_changes":[5.1004688E3,1.660059E4,5.299829E1,9.030117E2,1.3689453E1,2.482129E1,1.5467247E1,5.0679365E3,2.3491895E2,7.495117E0,2.8876835E1,3.909546E1,1.9769382E1,3.0915802E1,7.823636E0,1.156581E3,2.3272705E1,1.3557354E3,5.426816E1,0E0,5.831543E0,5.111124E0,0E0,2.472179E2,7.259155E1,1.1990017E1,4.2480175E1,1.1224445E2,6.5078384E1,7.85943E0,3.0138765E1,2.1412988E2,1.5880768E1,1.8954102E1,1.9074493E1,2.1927441E2,2.215149E0,4.6634766E1,0E0,2.2871094E0,3.9553974E0,0E0,9.531746E-1,7.811097E1,0E0,2.6004715E1,0E0,2.439433E0,0E0,7.124078E0,0E0,2.7336906E1,0E0,1.3559025E1,7.810669E-1,0E0,0E0,0E0,0E0,1.3867147E3,4.2050293E1,0E0,1.3685126E2,1.5342773E1,2.2726181E1,1.11618286E2,6.444298E1,2.088333E3,1.2762988E2,0E0,5.8858276E1,7.8878586E1,1.3728165E1,4.0976074E1,2.4583466E1,0E0,0E0,0E0,0E0,0E0,1.4912108E2,0E0,3.634942E1,0E0,3.430574E0,0E0,1.1701753E1,0E0,1.8803139E0,0E0,7.500474E0,9.362159E0,1.2807007E0,1.7330322E1,3.0667725E0,8.142529E1,9.751645E1,4.002634E1,0E0,1.1837326E1,2.2701416E0,1.4171047E1,2.8706284E0,3.4771156E1,7.43103E-1,5.827963E0,0E0,3.3066406E1,1.7792175E1,6.679883E1,2.1019583E2,1.5149638E1,0E0,0E0,3.9354874E1,0E0,0E0,1.3749184E1,1.300293E0,9.332804E0,1.9564819E0,5.279975E1,1.3485184E0,6.7926605E1,0E0,0E0,0E0,1.5676939E1,0E0,2.0490503E0,0E0,3.6498623E0,0E0,0E0,0E0,1.1146164E0,0E0,8.55365E2,9.517039E0,9.8609924E-1,8.370728E0,1.3127822E3,6.2929516E0,1.9898205E0,2.8996103E2,1.4240089E1,0E0,3.6809525E1,0E0,5.4475117E-1,0E0,0E0,8.062151E0,0E0,0E0,1.2601086E1,7.41949E1,0E0,0E0,1.1346506E1,0E0,2.3166748E1,6.7046585E0,0E0,1.4891113E1,1.0878906E1,1.1250934E1,1.2828651E1,8.346649E0,0E0,0E0,1.5390067E2,3.983333E1,3.200119E1,1.8989754E0,0E0,0E0,1.8361261E1,0E0,0E0,0E0,5.4108734E0,0E0,0E0,0E0,4.987591E0,4.3073196E0,1.5560074E0,8.4553814E-1,0E0,0E0,3.1727877E0,0E0,3.2662783E0,0E0,3.5297363E1,0E0,7.747551E-1,0E0,0E0,0E0,0E0,4.7124603E1,0E0,0E0,4.7575197E0,0E0,6.3525352E0,0E0,4.1725464E1,0E0,0E0,0E0,1.329834E0,6.6544275E0,0E0,7.235996E0,0E0,2.9082773E0,0E0,0E0,6.9788566E0,0E0,3.2100544E0,0E0,7.675293E0,1.05593506E2,0E0,6.724347E0,6.0297974E1,1.432623E1,6.3032227E0,1.371582E0,6.418089E0,1.6293674E0,1.5518875E0,1.7996875E2,1.26156006E2,2.0324768E1,0E0,5.1005096E0,2.249817E0,8.723202E0,0E0,5.6996603E0,0E0,0E0,0E0,0E0,0E0,1.1400906E1,9.51388E0,2.110405E0,6.4436293E0,7.628319E0,0E0,2.9283414E0,0E0,0E0,0E0,5.5460057E0,0E0,0E0,0E0,0E0,0E0,0E0,0E0,0E0,0E0,0E0,0E0,0E0,0E0,0E0,0E0,0E0,0E0,0E0,0E0,0E0,0E0,0E0,0E0,0E0,0E0,0E0,0E0,0E0,0E0,0E0,0E0,0E0,0E0,0E0,0E0,0E0,0E0,0E0,0E0,0E0,0E0,0E0,0E0,0E0,0E0,0E0,0E0,0E0,0E0,0E0,0E0,0E0,0E0,0E0,0E0,0E0,0E0,0E0,0E0,0E0,0E0,0E0,0E0,0E0,0E0,0E0,0E0,0E0,0E0,0E0,0E0,0E0,0E0,0E0],"parents":[2147483647,0,0,1,1,2,2,3,3,4,4,5,5,6,6,7,7,8,8,9,9,10,10,11,11,12,12,13,13,14,14,15,15,16,16,17,17,18,18,20,20,21,21,23,23,24,24,25,25,26,26,27,27,28,28,29,29,30,30,31,31,32,32,33,33,34,34,35,35,36,36,37,37,39,39,40,40,42,42,43,43,45,45,47,47,49,49,51,51,53,53,54,54,59,59,60,60,62,62,63,63,64,64,65,65,66,66,67,67,68,68,70,70,71,71,72,72,73,73,74,74,80,80,82,82,84,84,86,86,88,88,90,90,91,91,92,92,93,93,94,94,95,95,96,96,97,97,99,99,100,100,101,101,102,102,103,103,104,104,105,105,107,107,108,108,109,109,110,110,111,111,114,114,117,117,118,118,119,119,120,120,121,121,122,122,123,123,127,127,129,129,131,131,135,135,137,137,138,138,139,139,140,140,141,141,142,142,143,143,144,144,145,145,147,147,149,149,152,152,155,155,156,156,159,159,161,161,162,162,164,164,165,165,166,166,167,167,168,168,171,171,172,172,173,173,174,174,177,177,181,181,185,185,186,186,187,187,188,188,191,191,193,193,195,195,197,197,202,202,205,205,207,207,209,209,213,213,214,214,216,216,218,218,221,221,223,223,225,225,226,226,228,228,229,229,230,230,231,231,232,232,233,233,234,234,235,235,236,236,237,237,238,238,240,240,241,241,242,242,244,244,250,250,251,251,252,252,253,253,254,254,256,256,260,260],"right_children":[2,4,6,8,10,12,14,16,18,20,22,24,26,28,30,32,34,36,38,-1,40,42,-1,44,46,48,50,52,54,56,58,60,62,64,66,68,70,72,-1,74,76,-1,78,80,-1,82,-1,84,-1,86,-1,88,-1,90,92,-1,-1,-1,-1,94,96,-1,98,100,102,104,106,108,110,-1,112,114,116,118,120,-1,-1,-1,-1,-1,122,-1,124,-1,126,-1,128,-1,130,-1,132,134,136,138,140,142,144,146,-1,148,150,152,154,156,158,160,-1,162,164,166,168,170,-1,-1,172,-1,-1,174,176,178,180,182,184,186,-1,-1,-1,188,-1,190,-1,192,-1,-1,-1,194,-1,196,198,200,202,204,206,208,210,212,-1,214,-1,216,-1,-1,218,-1,-1,220,222,-1,-1,224,-1,226,228,-1,230,232,234,236,238,-1,-1,240,242,244,246,-1,-1,248,-1,-1,-1,250,-1,-1,-1,252,254,256,258,-1,-1,260,-1,262,-1,264,-1,266,-1,-1,-1,-1,268,-1,-1,270,-1,272,-1,274,-1,-1,-1,276,278,-1,280,-1,282,-1,-1,284,-1,286,-1,288,290,-1,292,294,296,298,300,302,304,306,308,310,312,-1,314,316,318,-1,320,-1,-1,-1,-1,-1,322,324,326,328,330,-1,332,-1,-1,-1,334,-1,-1,-1,-1,-1,-1,-1,-1,-1,-1,-1,-1,-1,-1,-1,-1,-1,-1,-1,-1,-1,-1,-1,-1,-1,-1,-1,-1,-1,-1,-1,-1,-1,-1,-1,-1,-1,-1,-1,-1,-1,-1,-1,-1,-1,-1,-1,-1,-1,-1,-1,-1,-1,-1,-1,-1,-1,-1,-1,-1,-1,-1,-1,-1,-1,-1,-1,-1,-1,-1,-1,-1,-1,-1],"split_conditions":[1.3613217E2,7.26804E-5,1E0,1E0,4E0,1E0,1E0,3.417865E-4,3.417865E-4,3.004413E-1,1.6669191E-1,2.000556E0,1.003451E0,2.000556E0,1.003451E0,1.766E2,7E0,1.9670157E2,1.6912305E2,3.1072447E-1,1.4749269E1,1.6852291E-1,2.7109906E-1,2.104427E2,1.6912305E2,1.9670157E2,2.2170499E2,2.2170499E2,1.637E2,2.104427E2,2.104427E2,3.0718527E1,7.622579E1,1E0,1E0,2.9303894E1,8.0626465E1,1E0,2.714404E-1,1E0,6.188681E1,9.609832E-2,6.34725E1,6.145931E1,2.9248562E-1,7.3576454E1,2.9121864E-1,1.1655923E2,2.2182487E-1,7.5037994E1,2.9350582E-1,5.43E1,2.904725E-1,7.937929E1,1.03391655E2,-2.74106E-1,1.7132547E-1,-2.3039062E-1,2.7345178E-1,4.998E1,1.2269E2,3.0416903E-1,2.104427E2,3.3469558E-1,3.3469558E-1,1.5347764E-1,1.5347764E-1,4.763E1,1.3279E2,2.9934224E-1,2.104427E2,5.2284177E-2,5.2284177E-2,2.057862E-1,1.6669191E-1,1.6789792E-1,-1.2033369E-1,-2.861133E-1,-8.138124E-2,3.1100857E-1,3.417865E-4,2.9059646E-1,3.417865E-4,-2.4064735E-1,1.01783775E2,1.906944E-1,2.057862E-1,2.737145E-1,7.580726E1,2.1654172E-1,1.0115878E-1,1.9670157E2,2.104427E2,3.716077E1,2.3846874E1,1.4188509E2,5.842565E1,1.338325E2,2.9051068E-1,6.000429E0,2.016289E0,4.000658E0,4.000658E0,7.0001016E0,7.0001016E0,1.1439391E2,2.6918432E-1,3.4845627E1,3.0007164E0,1.4188509E2,7.324333E1,1.2834879E2,2.8048432E-1,3.0265078E-1,7.9893894E0,2.2792605E-1,-2.5754127E-1,4.4E1,1.0087115E0,4.1006775E1,2.016289E0,1.6870947E2,8.9438E1,1.2834879E2,2.7241036E-1,1.5273915E-1,-1.931523E-1,1.2834879E2,2.3425817E-1,1.9011185E1,-2.552023E-1,5.801499E0,1.76513E-1,-1.2979521E-1,2.6527157E-1,1.2834879E2,2.940546E-1,1.9935137E-4,1.9935137E-4,1.9935137E-4,2.016289E0,1.9935137E-4,1.9935137E-4,9.50502E0,1.9935137E-4,1.9935137E-4,2.8498223E-1,6E0,3.22923E-1,2E0,2.930448E-1,-1.9332059E-1,5E0,1.6264002E-1,2.743918E-1,1.9935137E-4,1.9935137E-4,2.209454E-1,2.917249E-1,1.9935137E-4,1.7596205E-1,1.0001794E0,1.0001794E0,-7.2666705E-2,3E0,2E0,2E0,4.000658E0,1E0,-3.3307895E-1,2.037112E-1,1.0001794E0,1.0001794E0,2E0,1.0001794E0,7.359461E-2,2.9316682E-1,2E0,-2.531185E-1,6.3226394E-2,2.7896273E-1,6.000429E0,2.3830369E-1,1.0775671E-1,2.706661E-1,9.297158E-1,1.9935137E-4,8.001979E0,1.9624932E0,-2.0177995E-1,6.037357E-2,1.9935137E-4,-2.9432318E-1,6.000429E0,2.349048E-1,3.651258E1,3.7790272E-1,3.1007147E1,2.8084606E-1,5.027078E-1,3.5657492E-1,-2.1243915E-2,6.1274666E1,-2.845325E-1,3.678506E-1,2.30036E1,2.810248E-1,4.612154E1,-1.6674222E-3,5.263111E1,3.4555683E-1,-3.3431235E-1,2.0907183E-1,3.8E1,2.7947315E1,2.2482458E-1,4.306E1,3.040508E-1,6.8311543E0,-2.4744713E-1,2.0787804E-1,9.2588554E1,3.147976E-1,2.7E1,2.2558795E-1,1.264E1,3.143E1,-1.2214007E-1,2.6228348E1,2.4512089E1,5.235E1,1.1148E2,1.1753875E2,1.0776559E2,6.688E1,1.5341E2,5.6229603E1,6.822546E1,5.5475487E1,-3.3301345E-1,2.2000975E1,3.1133333E1,4.0909946E1,2.4005547E-1,3.300279E1,1.2809063E-2,-2.1419048E-1,2.3673736E-1,-1.8758713E-1,-3.09206E-1,8.9001816E1,8.362105E1,7.660192E1,2.30036E1,3.6577797E1,-2.7439767E-1,3.0002832E1,2.1608381E-1,2.7772585E-2,-2.244199E-1,9.700202E1,-8.617685E-2,2.0434907E-1,-2.7685413E-1,-1.509085E-1,-1.297927E-1,2.915563E-2,6.874921E-2,3.8837454E-1,-1.5386668E-1,1.1354933E-1,3.0984053E-1,-4.067174E-2,3.1852525E-1,-2.8489724E-1,2.3477912E-1,5.3055193E-2,4.9042463E-2,-1.6460256E-1,2.3587652E-1,-1.606476E-1,-1.4465594E-1,7.045018E-2,-9.817163E-2,1.2863551E-1,-2.030173E-2,-2.3649624E-1,-2.504618E-1,-2.8523502E-1,-2.5651103E-1,-6.453818E-2,2.700382E-1,-9.45374E-2,5.0118667E-1,2.4960251E-1,-1.8022202E-1,3.0681512E-1,-2.7430785E-1,-2.3971532E-1,-2.9101512E-1,-2.5891373E-1,2.8647617E-1,3.6013853E-2,-2.890545E-2,-2.2463997E-1,-2.0370817E-1,2.8109629E-2,3.7854898E-1,-3.0561358E-1,3.1000093E-1,-2.4524744E-1,2.858711E-1,-2.9918167E-1,2.599502E-2,2.1715441E-1,-1.9719093E-1,-3.1414303E-1,-2.2395078E-2,-1.7538658E-1,-9.780384E-2,8.825527E-2,-5.9734154E-2,-2.6725975E-1,1.5165447E-1,-1.9361942E-1,-6.8038064E-3,-2.863619E-1,-2.2009814E-1,1.3330057E-1,2.449826E-1,-1.5615489E-1,9.713081E-2,-2.0474434E-1,-1.9248088E-1,2.1477519E-1],"split_indices":[4,10,1,9,9,2,2,12,12,10,12,3,3,3,3,0,11,0,0,0,11,10,0,0,0,0,0,0,0,0,0,8,8,1,1,8,8,1,0,1,8,0,6,8,0,8,0,6,0,8,0,8,0,8,6,0,0,0,0,0,0,0,0,12,12,12,12,0,0,0,0,12,12,12,12,0,0,0,0,0,12,0,12,0,8,0,12,0,8,0,12,0,0,6,6,6,6,6,0,11,11,11,11,11,11,6,0,6,11,6,6,6,0,0,11,0,0,13,11,13,11,6,6,6,0,0,0,6,0,13,0,11,0,0,0,6,0,9,9,9,11,9,9,11,9,9,0,11,0,11,0,0,11,0,0,9,9,0,0,9,0,9,9,0,9,9,9,11,1,0,0,9,9,9,9,0,0,9,0,0,0,11,0,0,0,9,9,11,9,0,0,9,0,11,0,0,0,13,0,0,0,0,0,0,0,13,0,8,0,8,0,0,0,13,13,0,0,0,0,0,0,8,0,13,0,8,0,0,8,8,0,0,0,8,0,0,8,8,8,0,13,8,13,0,13,0,0,0,0,0,8,8,8,13,13,0,13,0,0,0,8,0,0,0,0,0,0,0,0,0,0,0,0,0,0,0,0,0,0,0,0,0,0,0,0,0,0,0,0,0,0,0,0,0,0,0,0,0,0,0,0,0,0,0,0,0,0,0,0,0,0,0,0,0,0,0,0,0,0,0,0,0,0,0,0,0,0,0,0,0,0,0,0,0,0],"split_type":[0,0,0,0,0,0,0,0,0,0,0,0,0,0,0,0,0,0,0,0,0,0,0,0,0,0,0,0,0,0,0,0,0,0,0,0,0,0,0,0,0,0,0,0,0,0,0,0,0,0,0,0,0,0,0,0,0,0,0,0,0,0,0,0,0,0,0,0,0,0,0,0,0,0,0,0,0,0,0,0,0,0,0,0,0,0,0,0,0,0,0,0,0,0,0,0,0,0,0,0,0,0,0,0,0,0,0,0,0,0,0,0,0,0,0,0,0,0,0,0,0,0,0,0,0,0,0,0,0,0,0,0,0,0,0,0,0,0,0,0,0,0,0,0,0,0,0,0,0,0,0,0,0,0,0,0,0,0,0,0,0,0,0,0,0,0,0,0,0,0,0,0,0,0,0,0,0,0,0,0,0,0,0,0,0,0,0,0,0,0,0,0,0,0,0,0,0,0,0,0,0,0,0,0,0,0,0,0,0,0,0,0,0,0,0,0,0,0,0,0,0,0,0,0,0,0,0,0,0,0,0,0,0,0,0,0,0,0,0,0,0,0,0,0,0,0,0,0,0,0,0,0,0,0,0,0,0,0,0,0,0,0,0,0,0,0,0,0,0,0,0,0,0,0,0,0,0,0,0,0,0,0,0,0,0,0,0,0,0,0,0,0,0,0,0,0,0,0,0,0,0,0,0,0,0,0,0,0,0,0,0,0,0,0,0,0,0,0,0,0,0,0,0,0,0,0,0,0,0,0,0,0,0,0,0],"sum_hessian":[2.3124566E4,2.1319332E4,1.8052349E3,1.800328E4,3.3160537E3,1.5740942E3,2.3114056E2,7.569995E3,1.0433284E4,3.2882266E3,2.7827164E1,1.49281E3,8.128423E1,2.067475E2,2.439307E1,6.4013223E3,1.168673E3,1.0102869E4,3.3041513E2,6.575282E2,2.6306982E3,8.450559E0,1.9376606E1,5.1954803E2,9.73262E2,1.3102556E1,6.818168E1,7.766271E1,1.290848E2,6.990304E0,1.7402767E1,6.180224E3,2.210983E2,7.5762585E2,4.1104715E2,9.89692E3,2.0594897E2,3.1380453E2,1.6610584E1,2.6212117E3,9.486516E0,1.9147667E0,6.535792E0,1.5983629E2,3.5971176E2,1.27968094E2,8.4529395E2,1.0225443E1,2.8771129E0,2.5740032E1,4.2441647E1,3.885462E1,3.880809E1,2.0091492E1,1.089933E2,5.6583567E0,1.3319476E0,7.388007E0,1.001476E1,1.7972816E3,4.3829424E3,8.127443E1,1.3982387E2,6.6047644E2,9.714941E1,3.5104343E2,6.0003708E1,2.7042305E3,7.1926895E3,7.552844E1,1.3042053E2,2.502145E2,6.359004E1,2.3612747E3,2.5993695E2,7.834242E0,1.652274E0,4.146942E0,2.3888497E0,2.5047747E1,1.3478854E2,2.9320711E1,9.8647385E1,7.6194677E0,2.6059754E0,3.8947668E0,2.1845264E1,3.8271554E0,3.5027466E1,3.266165E0,1.6825327E1,1.3445771E1,9.554753E1,1.6174799E3,1.7980174E2,4.037092E3,3.4585028E2,2.9358204E1,1.1046567E2,1.9126569E2,4.6921075E2,3.4716057E1,6.243335E1,1.0033693E2,2.507065E2,2.6102976E1,3.3900734E1,2.499947E3,2.0428336E2,6.7674824E3,4.2520688E2,9.771901E0,1.2064863E2,2.2043478E1,2.2817102E2,1.6831571E0,6.190688E1,1.1846679E2,2.2428079E3,1.9116789E1,2.4082016E2,9.552126E1,3.9267277E1,7.201243E1,2.6634954E1,1.4250739E0,1.1809015E0,1.8687897E1,3.1573672E0,3.0702395E0,3.1957226E1,1.5471428E1,1.3538995E0,2.345031E0,1.110074E1,9.911121E0,8.5636406E1,1.6079979E3,9.481878E0,4.135454E1,1.384472E2,4.01799E3,1.9102047E1,1.837905E1,3.2747122E2,2.4345238E1,5.012966E0,1.5408E2,3.7185677E1,1.2771787E1,4.5643896E2,7.160423E0,2.7555634E1,1.9170883E1,4.3262466E1,1.9999958E1,8.0336975E1,2.358449E1,2.2712201E2,2.4745993E1,1.3569837E0,2.487828E3,1.2119133E1,2.7452066E0,2.0153815E2,6.744561E3,2.292141E1,7.400396E1,3.512029E2,7.7472267E0,2.0246747E0,9.434395E1,1.3382707E2,1.13344475E2,5.122318E0,1.862145E0,2.2409458E3,1.6447954E1,2.6688342E0,2.3713431E0,2.3844882E2,8.645068E1,9.070577E0,4.083756E0,3.518352E1,3.329285E1,3.8719578E1,1.4175678E1,4.512218E0,1.1707172E0,1.8995223E0,5.5956283E0,9.875799E0,4.441401E0,5.4697204E0,1.5223876E3,8.5610306E1,6.4956927E0,2.9861858E0,1.3900621E1,2.745392E1,2.5550523E0,1.3589215E2,3.891396E3,1.2659409E2,1.2021992E1,7.0800548E0,1.7215809E1,1.1632402E0,2.9490497E2,3.2566246E1,2.290639E1,1.4388491E0,1.3217648E2,2.1903524E1,6.4889994E0,6.2827873E0,5.4159074E0,2.2139727E1,1.7981758E1,2.0181994E0,4.630265E1,3.4034325E1,2.2861965E1,1.8840276E0,1.4048466E3,1.0829813E3,4.0213695E0,8.097763E0,1.9287726E2,8.660885E0,3.9446929E3,2.7998684E3,1.6211826E1,6.7095823E0,4.8947144E0,6.9109245E1,2.6270822E2,8.84947E1,3.2511723E1,6.1832226E1,5.567156E1,7.815552E1,8.860552E1,2.4738955E1,2.1851518E0,2.937166E0,1.1205627E1,5.2423263E0,3.869315E1,4.7757534E1,1.4283697E1,1.9009153E1,1.0561603E1,2.8157976E1,1.0704619E1,3.4710586E0,2.7943466E0,1.7178714E0,2.1299162E0,3.465712E0,2.085344E0,2.356057E0,1.423249E3,9.91385E1,5.3755856E0,1.1201072E0,2.2582344E1,1.1330981E2,2.6308618E0,9.39113E0,1.5090359E1,2.1254504E0,3.8720543E0,2.9103293E2,1.2986598E2,2.3105073E0,1.2498973E1,9.4045515E0,4.3147483E0,1.9680392E0,1.9095185E0,2.0230207E1,4.0947083E1,5.35557E0,3.4025505E0,1.9459415E1,4.7754712E2,9.2729944E2,9.51791E2,1.311903E2,5.8154354E0,2.2823274E0,1.3527003E2,5.7607224E1,2.9617083E0,5.699177E0,3.6513328E3,2.9336E2,2.6591702E3,1.4069824E2,6.5716977E0,9.640129E0,3.3409903E0,3.368592E0,3.6516259E0,1.2430885E0,4.745966E1,2.1649584E1,1.669134E1,2.4601688E2,1.6897008E0,8.6805E1,6.5228744E0,5.5309353E1,1.6854248E1,3.881731E1,5.9040325E1,1.9115194E1,1.3934471E1,1.0804483E1,1.692352E1,3.0834015E1,3.5456119E0,1.0738086E1,1.1982887E0,1.7810865E1,1.6546773E0,8.906925E0,2.6781826E1,1.3761498E0,1.437998E0,2.0330606E0,1.4057113E0,2.0600007E0],"tree_param":{"num_deleted":"0","num_feature":"15","num_nodes":"335","size_leaf_vector":"0"}},{"base_weights":[-4.2552313E-1,-5.717579E-1,1.2766745E0,-8.2016087E-1,-4.7054973E-1,2.7376136E-1,1.2539543E0,-1.1115905E0,1.0696596E0,-9.339898E-1,1.1798754E0,1.131981E0,2.705228E-1,-1.1828808E0,-5.668227E-1,1.1214484E0,-5.1244485E-1,-1.0477046E0,-1.7502524E-1,3.198645E-1,1.2549603E0,-1.0356765E-1,1.1440454E0,-1.0750647E0,-1.2535609E0,1.3440764E0,-7.4286425E-1,3.7428916E-1,1.2323254E0,6.585769E-2,-1.0519447E0,2.3385808E0,-1.1028588E0,1.2613078E0,-5.2148473E-1,2.8581175E-1,1.5603797E-1,1.2911525E0,-3.079927E-1,-5.314629E-1,8.199718E-2,7.04871E-1,1.2057718E0,-1.2209812E0,-9.884998E-1,-1.2166759E0,-2.597665E-1,2.987762E-1,-2.0206721E-1,-1.098299E0,-5.8078337E-1,-2.7738774E-1,5.564939E-1,1.0483031E0,1.2661681E0,-6.652715E-1,2.4062791E-1,7.948532E-2,-2.4437085E-1,6.0083824E-1,4.3512946E-1,-1.2080168E0,-1.0432935E0,1.5058465E0,-2.601199E-1,-3.620171E-1,-1.002309E0,-1.1382978E0,5.049346E-1,1.1043281E-1,1.2964164E0,-2.7090028E-1,9.929339E-2,7.285577E-2,-1.9144885E-1,9.266112E-1,2.9284766E-1,9.9412715E-1,1.2237859E0,-2.6005742E-1,5.680991E-1,-1.1877668E0,4.2217213E-1,-2.6090378E-1,-1.1909418E0,-2.6690742E-1,-5.504115E-1,-1.1696979E0,2.6819772E-1,-1.4004705E0,1.0382955E0,-8.228229E-1,1.2883886E0,-3.167137E-1,2.701702E-1,-2.8241867E-1,-2.3720814E-1,-2.607069E-1,-1.1643969E0,-1.2713562E0,-9.4859934E-1,3.404869E-1,2.8121945E-1,-1.0754553E0,4.8425943E-1,3.1813326E-1,-1.0809128E0,-1.2588682E0,-6.359043E-1,-2.9909673E-1,1.0038495E0,-2.6176885E-1,2.4039364E-1,-1.2179301E0,1.354918E0,-2.4675825E-1,3.34393E-1,-3.1472486E-1,2.0083244E-1,-2.6840818E-1,5.854949E-1,-4.6254158E-2,1.0284845E0,6.18145E-3,1.2263374E0,-1.1170642E0,-1.2470306E0,-9.3095833E-1,-1.2187967E0,1.8119635E-1,-6.275367E-1,-7.450394E-1,-1.2549131E0,5.4994833E-1,-2.9939014E-1,-3.0966488E-1,-8.8337496E-2,1.0837686E0,-4.4426184E-2,-9.584306E-1,2.0645572E-2,2.6500347E-1,7.8599125E-2,-2.331173E-1,9.206995E-2,-1.1822386E0,-8.630398E-1,-2.6475114E-1,-1.2461216E0,-9.013198E-1,-1.1070915E0,3.0107638E-1,-1.0995835E0,5.7948154E-1,-6.056725E-1,-1.1831528E0,-9.4571584E-1,-6.264765E-1,-2.683952E-1,-2.5518048E-1,-2.2303067E-2,2.9548892E-1,7.829802E-1,-1.515404E0,-8.4255344E-1,2.4206737E-1,2.7221298E-1,9.392532E-1,-5.678938E-1,-1.7573933E-1,5.9773296E-2,-4.8118097E-1,1.492608E-1,2.0511265E-1,-1.6786696E-1,1.0857235E0,4.240642E-1,1.2289252E0,5.878966E-2,-2.4115525E-1,3.5279256E-1,-1.0309591E0,-2.6039556E-1,-1.0918064E0,-2.7260023E-1,-1.0186555E0,-1.2885374E0,5.382298E-3,-2.4803053E-1,-9.368318E-1,5.623852E-1,-9.6845984E-1,-2.6839447E-1,1.301337E-1,8.37055E-1,5.738286E-1,-8.3556527E-1,3.2018725E-2,2.2170436E-1,-2.794389E-1,1.1758887E-1,5.13988E-1,-1.2336888E0,3.7227663E-1,-9.318636E-1,-2.2811761E-1,-2.5666946E-1,4.2656907E-1,-1.019557E0,4.3193722E-1,-1.1751045E0,3.562389E-1,-1.1545599E0,3.24427E-1,3.992934E-1,-7.7228326E-1,4.1589072E-1,-1.1976539E0,6.903375E-2,2.0134111E-1,-1.0450218E0,1.3066035E-3,-8.390348E-1,-1.5514104E-1,4.5223626E-1,8.4099196E-2,9.0641916E-1,-1.5631396E0,-3.1128166E-2,-1.2059696E0,7.135983E-1,2.4170306E-1,1.3197336E-1,-3.296322E-1,-5.4485597E-2,-2.0385037E-1,4.4814542E-2,-1.1370108E-1,1.3373055E-1,3.687997E-2,2.2184363E-1,-7.860884E-2,1.981797E-1,1.2315615E0,2.7364492E-2,1.2650637E-1,-5.5977102E-2,-2.3818915E-1,-1.5063152E-1,-1.6342835E-1,-2.4808545E-1,-2.296584E-1,-1.1235166E-2,2.2792661E-1,-2.0770715E-1,2.8207728E-1,-2.6008698E-1,3.5852876E-2,-2.4422276E-1,3.0131954E-1,-2.6785615E-1,3.0803227E-1,-1.9165175E-1,3.281917E-2,-2.1452065E-1,-3.0888358E-2,1.8586172E-1,2.2037609E-1,6.0353827E-2,1.7165674E-1,-1.5540382E-1,-1.1393914E-1,-2.4920943E-1,-2.6074573E-1,-2.4313267E-1,-1.6732316E-1,-2.4583648E-1,-2.0625496E-1,4.5691028E-1,-2.2859119E-1,-2.626116E-1,-1.3967888E-1,-2.5349557E-1,3.4201482E-1,5.0209858E-2,-2.5479314E-1,9.531162E-3,2.2086139E-1,-5.091662E-2,-2.4960564E-1,-1.874092E-1,2.6196465E-1,-1.5284628E-1,-1.8692945E-1,-2.61392E-1,-1.8147571E-2,-2.1914247E-1,1.8460895E-1,-5.9131696E-3,7.947224E-2,-1.7655309E-1,2.0098367E-1,4.2780787E-2,7.917132E-2,-3.307328E-1,-1.6390723E-1,-3.2608053E-1,2.2747867E-1,5.449493E-2,-6.482934E-2,1.5032981E-1,-1.9263949E-1,9.435281E-2,1.3936675E-1,-1.3373089E-1,2.4710988E-1,8.610037E-2],"categories":[],"categories_nodes":[],"categories_segments":[],"categories_sizes":[],"default_left":[true,true,true,true,true,false,true,true,false,true,false,true,false,false,false,true,false,false,true,true,true,true,true,true,false,false,true,false,true,true,false,true,true,false,false,false,true,false,true,false,false,true,false,false,false,true,false,false,false,false,true,false,true,true,true,true,false,false,false,false,false,true,true,true,false,true,true,true,false,true,false,false,true,false,false,false,true,true,false,false,false,true,false,false,true,false,false,false,true,false,true,true,false,false,false,false,true,false,true,true,true,false,false,true,true,false,true,false,true,false,true,false,false,true,false,false,true,false,false,false,false,false,false,false,true,false,true,false,true,false,false,false,true,false,true,false,false,false,false,true,false,false,false,false,false,false,false,false,true,true,true,false,false,true,true,true,true,true,false,false,true,false,true,true,true,false,false,true,true,false,false,true,false,false,false,true,false,true,false,false,true,false,false,false,false,false,true,false,false,true,true,false,false,true,true,false,false,false,false,false,false,false,true,false,true,false,false,false,false,false,true,false,true,false,true,true,true,true,false,true,true,false,true,false,true,true,true,true,false,true,false,false,true,false,true,false,true,false,false,false,false,false,false,true,false,false,false,false,false,false,false,false,false,false,false,false,false,false,false,false,false,false,false,false,false,false,false,false,false,false,false,false,false,false,false,false,false,false,false,false,false,false,false,false,false,false,false,false,false,false,false,false,false,false,false,false,false,false,false,false,false,false,false,false,false,false,false,false,false,false,false,false,false,false,false,false,false],"id":3,"left_children":[1,3,5,7,9,-1,11,13,15,17,19,21,-1,23,25,27,29,31,33,35,37,39,41,43,45,47,49,51,53,55,57,59,61,63,65,-1,67,69,71,73,-1,75,77,79,81,83,-1,-1,-1,85,87,-1,89,91,93,95,-1,-1,-1,-1,-1,97,99,101,-1,103,105,107,109,111,113,-1,115,-1,-1,117,119,121,123,-1,-1,125,-1,-1,127,-1,129,131,133,135,137,139,141,-1,-1,-1,143,-1,145,147,149,-1,-1,151,153,-1,155,157,159,-1,161,-1,-1,163,165,-1,167,169,-1,171,173,-1,175,-1,177,179,181,183,185,-1,187,189,191,193,195,-1,-1,197,-1,199,-1,-1,-1,-1,-1,201,203,-1,205,207,209,-1,211,213,215,217,219,221,-1,-1,223,-1,225,227,229,-1,-1,231,233,-1,-1,235,-1,-1,237,239,241,243,-1,-1,245,247,-1,249,251,253,255,257,-1,259,261,263,-1,265,267,269,271,-1,-1,-1,-1,-1,273,-1,275,-1,-1,-1,277,-1,279,-1,281,-1,283,285,287,289,-1,291,293,-1,295,-1,297,299,301,303,-1,305,307,-1,309,-1,311,-1,313,-1,-1,-1,-1,-1,-1,315,-1,-1,-1,-1,-1,-1,-1,-1,-1,-1,-1,-1,-1,-1,-1,-1,-1,-1,-1,-1,-1,-1,-1,-1,-1,-1,-1,-1,-1,-1,-1,-1,-1,-1,-1,-1,-1,-1,-1,-1,-1,-1,-1,-1,-1,-1,-1,-1,-1,-1,-1,-1,-1,-1,-1,-1,-1,-1,-1,-1,-1,-1,-1,-1,-1,-1,-1,-1,-1,-1,-1,-1,-1],"loss_changes":[5.225009E3,4.855288E2,1.7600098E0,3.0820186E3,1.0506746E4,0E0,1.4643799E1,1.875708E2,6.1853394E1,9.2539355E2,1.9407666E2,9.168945E0,0E0,3.1307617E1,1.9032828E2,5.9558228E1,7.67942E0,1.7445215E3,6.966703E2,4.396515E1,1.5706104E2,1.7095898E0,1.5452759E1,2.0314697E1,2.7319336E0,1.8379623E1,2.9087524E1,3.1276062E1,2.598938E0,1.1371843E1,3.6077652E0,9.709351E0,5.6228516E1,1.7242505E2,8.609317E1,0E0,9.676357E1,1.668164E1,2.7194881E1,1.9270574E0,0E0,6.7192993E0,7.8826904E-1,2.0667267E2,6.662235E2,1.6987305E0,0E0,0E0,0E0,2.0036545E1,1.7855809E2,0E0,8.335063E1,4.766458E1,1.2948529E2,2.3448558E0,0E0,0E0,0E0,0E0,0E0,1.2283691E1,1.2548828E2,2.486084E0,0E0,5.1269244E2,5.88407E1,1.9575462E0,1.6963908E2,2.188018E1,3.980581E2,0E0,1.5027803E1,0E0,0E0,5.060318E0,4.7944784E0,2.1987991E0,1.4240112E0,0E0,0E0,2.8406982E0,0E0,0E0,7.00708E0,0E0,6.1904287E0,6.688965E0,2.364482E1,1.8090477E0,4.268486E0,1.6571064E0,2.5075836E0,0E0,0E0,0E0,4.7656207E0,0E0,1.1256836E1,6.2231445E-1,3.0094238E1,0E0,0E0,3.0336182E1,4.0693787E1,0E0,2.64917E0,1.0355034E0,4.225797E0,0E0,1.3010269E1,0E0,0E0,5.624565E0,6.9384766E-1,0E0,2.2597752E1,1.5288744E0,0E0,2.596236E0,6.4286833E0,0E0,1.1133766E0,0E0,7.9504395E-1,6.1753174E1,5.081482E0,1.1672043E1,1.2816284E1,0E0,1.8666079E1,9.973263E0,3.0398254E0,1.1760061E1,2.3586945E1,0E0,0E0,1.3771973E0,0E0,8.230749E0,0E0,0E0,0E0,0E0,0E0,4.1882153E2,2.6360443E1,0E0,3.1593018E0,1.1506321E3,2.1338501E2,0E0,7.441693E1,6.660973E1,5.7201033E0,3.7652283E0,1.4149162E1,8.157692E-1,0E0,0E0,2.6920033E0,0E0,8.075329E0,1.9134903E0,1.758703E1,0E0,0E0,5.1835537E0,9.254644E0,0E0,0E0,2.642018E0,0E0,0E0,3.0003102E0,6.618576E-1,2.9721522E0,1.2064819E0,0E0,0E0,5.0519314E0,4.191963E0,0E0,2.6809464E0,4.3942223E0,1.2611816E1,2.5817139E1,5.4791927E0,0E0,3.4692474E1,9.570572E0,5.383522E0,0E0,9.508272E0,7.9312096E0,8.109393E0,2.6717205E0,0E0,0E0,0E0,0E0,0E0,1.0976562E0,0E0,2.618126E0,0E0,0E0,0E0,1.2167627E2,0E0,2.625E0,0E0,2.2239624E1,0E0,5.914165E1,1.1423182E1,2.6341693E0,8.0029297E-1,0E0,1.2333802E1,2.0390244E0,0E0,7.6797533E-1,0E0,1.0819712E0,4.9806886E0,5.255913E0,6.3276978E0,0E0,2.657402E0,8.5434055E-1,0E0,2.2986517E0,0E0,6.410422E0,0E0,3.0695193E0,0E0,0E0,0E0,0E0,0E0,0E0,9.8968506E-1,0E0,0E0,0E0,0E0,0E0,0E0,0E0,0E0,0E0,0E0,0E0,0E0,0E0,0E0,0E0,0E0,0E0,0E0,0E0,0E0,0E0,0E0,0E0,0E0,0E0,0E0,0E0,0E0,0E0,0E0,0E0,0E0,0E0,0E0,0E0,0E0,0E0,0E0,0E0,0E0,0E0,0E0,0E0,0E0,0E0,0E0,0E0,0E0,0E0,0E0,0E0,0E0,0E0,0E0,0E0,0E0,0E0,0E0,0E0,0E0,0E0,0E0,0E0,0E0,0E0,0E0,0E0,0E0,0E0,0E0,0E0,0E0,0E0],"parents":[2147483647,0,0,1,1,2,2,3,3,4,4,6,6,7,7,8,8,9,9,10,10,11,11,13,13,14,14,15,15,16,16,17,17,18,18,19,19,20,20,21,21,22,22,23,23,24,24,25,25,26,26,27,27,28,28,29,29,30,30,31,31,32,32,33,33,34,34,36,36,37,37,38,38,39,39,41,41,42,42,43,43,44,44,45,45,49,49,50,50,52,52,53,53,54,54,55,55,61,61,62,62,63,63,65,65,66,66,67,67,68,68,69,69,70,70,72,72,75,75,76,76,77,77,78,78,81,81,84,84,86,86,87,87,88,88,89,89,90,90,91,91,92,92,96,96,98,98,99,99,100,100,103,103,104,104,106,106,107,107,108,108,110,110,113,113,114,114,116,116,117,117,119,119,120,120,122,122,124,124,125,125,126,126,127,127,128,128,130,130,131,131,132,132,133,133,134,134,137,137,139,139,145,145,146,146,148,148,149,149,150,150,152,152,153,153,154,154,155,155,156,156,157,157,160,160,162,162,163,163,164,164,167,167,168,168,171,171,174,174,175,175,176,176,177,177,180,180,181,181,183,183,184,184,185,185,186,186,187,187,189,189,190,190,191,191,193,193,194,194,195,195,196,196,202,202,204,204,208,208,210,210,212,212,214,214,215,215,216,216,217,217,219,219,220,220,222,222,224,224,225,225,226,226,227,227,229,229,230,230,232,232,234,234,236,236,243,243],"right_children":[2,4,6,8,10,-1,12,14,16,18,20,22,-1,24,26,28,30,32,34,36,38,40,42,44,46,48,50,52,54,56,58,60,62,64,66,-1,68,70,72,74,-1,76,78,80,82,84,-1,-1,-1,86,88,-1,90,92,94,96,-1,-1,-1,-1,-1,98,100,102,-1,104,106,108,110,112,114,-1,116,-1,-1,118,120,122,124,-1,-1,126,-1,-1,128,-1,130,132,134,136,138,140,142,-1,-1,-1,144,-1,146,148,150,-1,-1,152,154,-1,156,158,160,-1,162,-1,-1,164,166,-1,168,170,-1,172,174,-1,176,-1,178,180,182,184,186,-1,188,190,192,194,196,-1,-1,198,-1,200,-1,-1,-1,-1,-1,202,204,-1,206,208,210,-1,212,214,216,218,220,222,-1,-1,224,-1,226,228,230,-1,-1,232,234,-1,-1,236,-1,-1,238,240,242,244,-1,-1,246,248,-1,250,252,254,256,258,-1,260,262,264,-1,266,268,270,272,-1,-1,-1,-1,-1,274,-1,276,-1,-1,-1,278,-1,280,-1,282,-1,284,286,288,290,-1,292,294,-1,296,-1,298,300,302,304,-1,306,308,-1,310,-1,312,-1,314,-1,-1,-1,-1,-1,-1,316,-1,-1,-1,-1,-1,-1,-1,-1,-1,-1,-1,-1,-1,-1,-1,-1,-1,-1,-1,-1,-1,-1,-1,-1,-1,-1,-1,-1,-1,-1,-1,-1,-1,-1,-1,-1,-1,-1,-1,-1,-1,-1,-1,-1,-1,-1,-1,-1,-1,-1,-1,-1,-1,-1,-1,-1,-1,-1,-1,-1,-1,-1,-1,-1,-1,-1,-1,-1,-1,-1,-1,-1,-1],"split_conditions":[1.8545E2,2.000556E0,7.7010605E1,5.930706E-2,5.023475E-2,2.7376136E-1,1.9484938E2,8.7215936E-5,7.3768634E-1,8.7215936E-5,7.17722E-2,9.085E1,2.705228E-1,2E0,1.724138E-2,9.7005084E-2,1E0,3E0,1.9607844E-2,2.9994152E0,7.3768634E-1,1.0001794E0,2.000556E0,1.9935137E-4,1.5956622E1,4.71588E1,1.9935137E-4,1.6018559E1,1.9935137E-4,1.9935137E-4,3.0404925E0,1.9935137E-4,1.9935137E-4,5.1E1,2E0,2.8581175E-1,1.9011185E1,1.4E1,1.9935137E-4,1.1E1,8.199718E-2,3E1,2.1008461E1,1.003451E0,1.003451E0,4.000658E0,-2.597665E-1,2.987762E-1,-2.0206721E-1,3.417865E-4,3.417865E-4,-2.7738774E-1,9.139422E-2,6.667153E-2,9.139422E-2,4.000658E0,2.4062791E-1,7.948532E-2,-2.4437085E-1,6.0083824E-1,4.3512946E-1,3.0021243E0,3.0021243E0,3.417865E-4,-2.601199E-1,3.417865E-4,2.9994152E0,1.5347764E-1,3.417865E-4,3.3469558E-1,3.417865E-4,-2.7090028E-1,4.2303288E-1,7.285577E-2,-1.9144885E-1,1.003451E0,8.001979E0,1.0087115E0,1.0087115E0,-2.6005742E-1,5.680991E-1,4.1E1,4.2217213E-1,-2.6090378E-1,2.2279404E1,-2.6690742E-1,1.9E1,2.4327643E-2,6.3E1,9.500563E1,1.0792132E2,7.9013054E1,6.785714E-1,-3.167137E-1,2.701702E-1,-2.8241867E-1,4.3022026E1,-2.607069E-1,1.23025345E2,6.402752E1,3.7E1,3.404869E-1,2.8121945E-1,2E1,4.1E1,3.1813326E-1,9.401712E1,5.3450596E1,1.7040611E1,-2.9909673E-1,2.8E1,-2.6176885E-1,2.4039364E-1,2.8003628E1,8.804459E-2,-2.4675825E-1,2.878755E1,2.8003628E1,2.0083244E-1,3.0361846E-2,4.8266365E1,-4.6254158E-2,2.1E1,6.18145E-3,1.29E2,1.4794408E2,2.366258E1,8.887857E1,2.6648018E1,1.8119635E-1,2E0,1.1351E2,2.6648018E1,1.003451E0,2E0,-3.0966488E-1,-8.8337496E-2,6.443333E0,-4.4426184E-2,8.505E1,2.0645572E-2,2.6500347E-1,7.8599125E-2,-2.331173E-1,9.206995E-2,4E0,3.9827912E0,-2.6475114E-1,3.0286922E1,4E0,4E0,3.0107638E-1,2.9994152E0,2.9994152E0,9.297782E1,1.3613217E2,1.1267756E1,2.5375294E1,-2.683952E-1,-2.5518048E-1,3.0021243E0,2.9548892E-1,3.0021243E0,1.1638887E2,1.14964554E2,2.4206737E-1,2.7221298E-1,7.319229E1,3.8812405E1,-1.7573933E-1,5.9773296E-2,9.740928E1,1.492608E-1,2.0511265E-1,1.7225244E2,1.0308E2,3.0021243E0,9E0,5.878966E-2,-2.4115525E-1,7.9893894E0,3.300279E1,-2.6039556E-1,2.8E1,2.4000715E1,4.838746E0,5E0,1.0884755E1,-2.4803053E-1,3.9591206E1,4E1,2.3E1,-2.6839447E-1,4.3502193E-2,9E0,1.1E1,9.848262E0,3.2018725E-2,2.2170436E-1,-2.794389E-1,1.1758887E-1,5.13988E-1,3.0007164E0,3.7227663E-1,3.3842747E1,-2.2811761E-1,-2.5666946E-1,4.2656907E-1,3.60008E1,4.3193722E-1,4.7E1,3.562389E-1,2.631579E-2,3.24427E-1,2.4327643E-2,2.5098875E-2,8.176966E0,3.8452253E-2,6.903375E-2,3.3E1,4.0909946E1,1.3066035E-3,2.016289E0,-1.5514104E-1,4.000658E0,1E1,1.1E1,1E0,-3.1128166E-2,3.998782E-1,3.8499624E-1,2.4170306E-1,2.6002575E1,-3.296322E-1,8.001979E0,-2.0385037E-1,7E0,-1.1370108E-1,1.3373055E-1,3.687997E-2,2.2184363E-1,-7.860884E-2,1.981797E-1,1.4749269E1,2.7364492E-2,1.2650637E-1,-5.5977102E-2,-2.3818915E-1,-1.5063152E-1,-1.6342835E-1,-2.4808545E-1,-2.296584E-1,-1.1235166E-2,2.2792661E-1,-2.0770715E-1,2.8207728E-1,-2.6008698E-1,3.5852876E-2,-2.4422276E-1,3.0131954E-1,-2.6785615E-1,3.0803227E-1,-1.9165175E-1,3.281917E-2,-2.1452065E-1,-3.0888358E-2,1.8586172E-1,2.2037609E-1,6.0353827E-2,1.7165674E-1,-1.5540382E-1,-1.1393914E-1,-2.4920943E-1,-2.6074573E-1,-2.4313267E-1,-1.6732316E-1,-2.4583648E-1,-2.0625496E-1,4.5691028E-1,-2.2859119E-1,-2.626116E-1,-1.3967888E-1,-2.5349557E-1,3.4201482E-1,5.0209858E-2,-2.5479314E-1,9.531162E-3,2.2086139E-1,-5.091662E-2,-2.4960564E-1,-1.874092E-1,2.6196465E-1,-1.5284628E-1,-1.8692945E-1,-2.61392E-1,-1.8147571E-2,-2.1914247E-1,1.8460895E-1,-5.9131696E-3,7.947224E-2,-1.7655309E-1,2.0098367E-1,4.2780787E-2,7.917132E-2,-3.307328E-1,-1.6390723E-1,-3.2608053E-1,2.2747867E-1,5.449493E-2,-6.482934E-2,1.5032981E-1,-1.9263949E-1,9.435281E-2,1.3936675E-1,-1.3373089E-1,2.4710988E-1,8.610037E-2],"split_indices":[0,3,8,14,14,0,4,14,14,14,14,4,0,3,14,14,9,3,14,3,14,9,3,9,5,13,9,13,9,9,5,9,9,13,9,0,13,13,9,5,0,13,13,3,3,11,0,0,0,12,12,0,12,12,12,11,0,0,0,0,0,3,3,12,0,12,3,12,12,12,12,0,12,0,0,3,11,11,11,0,0,7,0,0,7,0,13,14,7,7,7,7,14,0,0,0,7,0,7,7,13,0,0,13,13,0,7,7,13,0,13,0,0,13,14,0,13,13,0,14,7,0,13,0,7,4,8,4,8,0,3,4,8,3,3,0,0,4,0,4,0,0,0,0,0,3,3,0,8,3,3,0,3,3,8,4,8,8,0,0,3,0,3,4,4,0,0,8,4,0,0,8,0,0,4,4,3,3,0,0,11,13,0,13,13,11,11,11,0,13,13,13,0,14,11,11,11,0,0,0,0,0,11,0,13,0,0,0,13,0,13,0,14,0,14,14,11,14,0,13,13,0,11,0,11,11,11,11,0,14,14,0,13,0,11,0,11,0,0,0,0,0,0,11,0,0,0,0,0,0,0,0,0,0,0,0,0,0,0,0,0,0,0,0,0,0,0,0,0,0,0,0,0,0,0,0,0,0,0,0,0,0,0,0,0,0,0,0,0,0,0,0,0,0,0,0,0,0,0,0,0,0,0,0,0,0,0,0,0,0,0,0,0,0,0,0,0],"split_type":[0,0,0,0,0,0,0,0,0,0,0,0,0,0,0,0,0,0,0,0,0,0,0,0,0,0,0,0,0,0,0,0,0,0,0,0,0,0,0,0,0,0,0,0,0,0,0,0,0,0,0,0,0,0,0,0,0,0,0,0,0,0,0,0,0,0,0,0,0,0,0,0,0,0,0,0,0,0,0,0,0,0,0,0,0,0,0,0,0,0,0,0,0,0,0,0,0,0,0,0,0,0,0,0,0,0,0,0,0,0,0,0,0,0,0,0,0,0,0,0,0,0,0,0,0,0,0,0,0,0,0,0,0,0,0,0,0,0,0,0,0,0,0,0,0,0,0,0,0,0,0,0,0,0,0,0,0,0,0,0,0,0,0,0,0,0,0,0,0,0,0,0,0,0,0,0,0,0,0,0,0,0,0,0,0,0,0,0,0,0,0,0,0,0,0,0,0,0,0,0,0,0,0,0,0,0,0,0,0,0,0,0,0,0,0,0,0,0,0,0,0,0,0,0,0,0,0,0,0,0,0,0,0,0,0,0,0,0,0,0,0,0,0,0,0,0,0,0,0,0,0,0,0,0,0,0,0,0,0,0,0,0,0,0,0,0,0,0,0,0,0,0,0,0,0,0,0,0,0,0,0,0,0,0,0,0,0,0,0,0,0,0,0,0,0,0,0,0,0,0,0,0,0,0,0,0,0,0,0,0,0,0,0,0,0,0,0],"sum_hessian":[2.0986742E4,1.9327031E4,1.65971E3,5.5928857E3,1.37341455E4,3.1660553E2,1.3431044E3,4.8459956E3,7.4688995E2,1.0723435E4,3.0107112E3,6.0616943E2,7.3693494E2,4.28418E3,5.618154E2,7.2349805E2,2.3391932E1,9.325783E3,1.3976511E3,2.4217213E2,2.768539E3,5.788245E0,6.0038116E2,1.7028474E3,2.5813328E3,4.6831627E1,5.149838E2,9.405724E1,6.294408E2,1.1713687E1,1.1678245E1,1.4879607E2,9.176987E3,2.710998E2,1.1265514E3,3.017154E1,2.120006E2,2.706051E3,6.248799E1,3.138423E0,2.6498222E0,7.551593E1,5.2486523E2,6.2917725E2,1.0736702E3,1.4377777E3,1.143555E3,4.437375E1,2.457878E0,1.594789E2,3.555049E2,8.198346E0,8.5858894E1,1.02742874E2,5.2669794E2,7.3826227E0,4.331064E0,1.0848811E0,1.0593364E1,2.5831608E1,1.2296446E2,3.311506E3,5.865481E3,2.4785391E2,2.324588E1,8.4729486E2,2.7925653E2,4.4532284E1,1.674683E2,1.2108124E1,2.6939429E3,1.6854698E1,4.5633293E1,1.0577071E0,2.080716E0,4.828258E1,2.7233353E1,4.5576633E1,4.792886E2,6.177938E2,1.1383405E1,1.00939026E3,6.427986E1,3.1450916E2,1.1232686E3,1.1042854E2,4.9050358E1,2.096788E2,1.4582611E2,1.6585556E1,6.927334E1,1.1407833E1,9.1335045E1,1.4688905E1,5.1200903E2,1.8522662E0,5.5303564E0,1.0291094E3,2.2823967E3,1.717238E3,4.1482427E3,7.8020996E1,1.6983292E2,4.5958182E2,3.8771304E2,7.650378E0,2.7160614E2,3.4699043E1,9.8332405E0,3.3031155E1,1.3443715E2,5.1772633E0,6.9308605E0,6.080442E1,2.6331384E3,6.204422E0,3.942887E1,2.6592054E0,4.5623375E1,9.361722E0,1.787163E1,1.0867003E0,4.4489933E1,1.051021E0,4.7823758E2,4.693267E2,5.400636E2,1.1203261E2,1.01123596E3,1.9263968E0,4.7123962E1,3.6671974E1,1.7300684E2,9.747206E1,4.835405E1,1.3836885E1,2.7486703E0,6.699643E1,2.2769082E0,9.92019E0,1.4876432E0,8.72846E1,4.050443E0,2.0847776E0,3.4455788E0,2.1520625E3,1.3033432E2,5.414539E2,1.1757842E3,3.2002642E3,9.479784E2,3.6882067E0,4.5589362E2,3.5699265E2,3.072039E1,1.502394E2,1.21366745E2,5.022144E0,2.9676899E1,4.2847724E0,5.548468E0,4.0947315E1,9.348984E1,3.2227856E1,2.8576565E1,1.1545405E2,2.5176843E3,2.3580437E1,1.5848434E1,1.1604984E0,1.498707E0,8.173611E0,1.1881112E0,1.1053517E1,6.818112E0,3.991377E1,4.576165E0,4.7659677E2,1.6408001E0,4.4278256E2,2.654413E1,1.1350084E2,4.2656274E2,8.950631E1,2.2526295E1,2.6534833E2,7.4588763E2,2.3665432E1,2.3458532E1,3.222778E1,4.4441957E0,4.3150818E1,1.2985602E2,4.0177197E1,5.729486E1,1.8368595E1,2.9985455E1,1.9434536E0,6.505298E1,7.8027353E0,2.1174545E0,2.8448084E1,2.1236145E3,2.5696094E0,1.2776471E2,3.148454E2,8.609388E2,1.193933E2,3.0808708E3,1.870677E1,9.292716E2,7.9492836E0,4.4794434E2,5.14244E1,3.0556824E2,2.6622448E1,4.097941E0,1.4904161E2,1.1977918E0,9.58823E0,1.1177852E2,1.5061162E0,3.5160275E0,1.8989509E0,3.649517E0,1.4286196E1,7.920364E1,3.0990349E1,1.2375044E0,2.3348825E1,5.22774E0,1.7309847E1,6.2705903E0,4.3935947E0,1.145484E1,3.5768695E0,4.596741E0,4.826787E0,1.9913248E0,1.2387835E0,3.8674984E1,1.9998789E0,2.5762863E0,4.753217E2,1.275085E0,1.840609E1,8.138041E0,6.993695E1,4.3563892E1,3.370838E1,5.5797928E1,3.6107626E0,1.8915531E1,1.9077605E0,2.6344058E2,2.757746E0,7.431299E2,2.1474764E1,2.1906672E0,4.1694984E0,2.805828E1,2.6971133E0,1.7470826E0,3.585291E0,3.956553E1,3.0222218E1,9.954979E0,3.7622932E1,1.967193E1,1.5474649E1,2.8939457E0,1.9647573E1,1.0337881E1,4.2007227E2,1.7035422E3,9.9653885E1,2.8110828E1,3.070669E3,1.0202024E1,7.611734E2,1.6809822E2,9.030706E1,3.5763727E2,2.9976778E1,2.7559146E2,1.617313E1,1.0449319E1,1.7026609E0,2.39528E0,1.2172403E2,2.7317581E1,4.297804E0,5.2904263E0,8.1854965E1,2.9923555E1,1.2437137E0,2.2723138E0,1.382624E0,2.2668931E0,1.1235077E1,3.0511189E0,6.894606E1,1.0257582E1,1.2198248E0,2.9770525E1,1.3755635E1,9.59319E0,1.8612272E0,3.3665128E0,3.8866684E0,2.3839219E0,3.8963819E0,7.558458E0,2.4139848E0,2.1827564E0,4.724274E2,2.8942888E0],"tree_param":{"num_deleted":"0","num_feature":"15","num_nodes":"317","size_leaf_vector":"0"}},{"base_weights":[-3.8696304E-1,-7.847645E-1,1.0314071E0,-9.725518E-1,1.2137152E0,5.577129E-1,1.2085599E0,-9.9008393E-1,1.4388204E-1,1.1519E0,2.526006E-1,1.4416131E-1,1.0977637E0,1.0851669E0,1.2466054E0,-9.5890117E-1,-1.1537179E0,2.16437E-1,-4.9432737E-1,1.1679384E0,8.003361E-1,1.2032214E0,-8.70217E-2,1.1371968E0,5.0745857E-1,1.1979882E0,-1.1253175E0,2.541756E-1,1.4892426E-1,-6.9046795E-1,-1.067323E0,-1.0413916E0,-1.1933705E0,9.137526E-1,-4.197401E-1,1.35423E-1,-8.7711465E-1,9.59992E-1,2.4088629E-1,2.3941937E-1,1.0058409E-1,2.4511571E-1,-7.56566E-2,3.8995242E-1,-7.0965654E-1,2.4793518E-1,1.932553E-2,2.5411043E-1,-1.486871E-1,1.2132691E0,-3.701727E-2,-1.3603848E0,-2.8058615E-1,2.7035308E-1,-4.3252617E-1,-8.1666523E-1,1.4757153E0,-1.0824594E0,6.520459E-1,-1.0781944E0,8.361028E-1,-2.3925336E-1,-4.6852717E-1,-7.7131085E-2,9.564963E-1,-1.2021273E0,3.1970775E-1,-1.0002979E0,-5.642175E-3,1.5372846E-1,2.2985129E-1,4.6081108E-1,-3.4887964E-1,-8.239066E-1,3.7955785E-1,-1.9287665E-1,7.792887E-1,1.5178896E-1,-6.748599E-1,2.4563017E-1,1.8963645E-1,-5.6753904E-1,1.5784965E-1,-2.9545334E-1,-6.3217825E-1,-5.339115E-1,1.5891743E-1,3.270538E-1,-6.976615E-1,-9.189155E-1,1.2091446E0,6.9823027E-1,1.6964315E0,-1.1011955E0,-8.710621E-1,-1.6801037E-1,8.2412004E-1,-1.1068953E0,3.0426845E-1,-3.6684494E-2,2.5236374E-1,-1.8854767E-1,-1.8055227E-1,6.692001E-1,1.046921E0,-2.50661E-1,8.028679E-2,3.782979E-1,-2.6164505E-1,-2.3751779E-1,-4.9118336E-2,4.067137E-1,1.1137573E0,-2.2276628E-1,-2.2573097E-1,-7.438854E-1,-2.586568E-1,-5.21389E-1,6.431626E-1,1.16039895E-1,-1.436811E-1,2.2968195E-1,1.731034E-1,-5.1168054E-1,1.1521491E-1,-2.1855973E-1,5.875653E-2,-1.0192057E-1,-2.6985E-1,-1.0286905E0,6.2009156E-2,-1.8247001E-1,1.7917249E-1,1.7719518E-1,1.7727846E-2,-2.2416858E-1,-3.265643E-1,-9.974217E-1,1.6974424E0,2.3375899E-1,3.583917E-1,-5.0237703E-1,3.34874E-1,4.274954E-1,3.5712084E-1,-1.131105E0,-6.7674446E-1,-9.6133816E-1,-6.1684734E-1,1.7910121E-1,-6.4319783E-1,1.009215E0,2.619298E-4,-2.3582979E-1,1.9495639E-1,5.1714767E-2,-5.888686E-1,1.829953E-1,-1.08682685E-1,3.369517E-2,2.169658E-1,5.6261796E-1,-1.3324551E-1,-2.7061266E-1,1.8881741E-1,5.4113996E-1,-2.1311447E-1,3.1858736E-1,2.458396E-1,-3.6850968E-1,3.8175187E-1,-7.9049695E-1,1.8029203E-1,-1.8928145E-1,-8.9022025E-2,-4.593373E-1,2.3713651E-1,-6.1245406E-1,5.0448877E-1,-1.3930933E-1,1.4336218E-1,-8.038223E-3,-1.907772E-1,-1.1666496E-1,1.5565245E-1,-2.826484E-1,-7.086534E-3,-6.26577E-2,-2.5277463E-1,-9.368496E-1,-1.0861574E0,3.6641493E-1,1.1562055E0,3.6531767E-1,-4.7581667E-1,-1.2661856E-1,1.2235991E-1,-1.6905996E-1,1.9675867E-1,-1.1323972E0,-5.5725336E-1,7.677066E-1,-9.644262E-1,4.754674E-2,-1.050637E0,1.9599167E-1,-8.320832E-1,-3.2246064E-2,-1.7540957E-1,2.0562047E-1,1.1175066E0,1.6250334E0,-7.2677153E-1,-1.2701859E-3,-1.8647785E-1,2.1468477E-1,7.474221E-1,2.1921928E-1,4.736507E-1,-3.5159534E-1,1.16977036E-1,-1.24112464E-1,1.8275288E-1,3.335076E-1,-9.0988356E-1,1.5335906E-1,-7.8478046E-2,2.4260293E-1,-8.313878E-1,5.1723547E-2,-8.724864E-2,2.8240811E-2,-1.7590871E-1,9.94556E-2,-9.240253E-1,2.174077E-1,2.0355535E-1,2.000221E-1,-3.2139888E-1,-2.2003205E-1,-1.5874298E-1,-2.0679331E-1,-2.4461511E-1,2.6467454E-1,5.417799E-2,1.2119235E-2,-1.6340803E-1,-2.2030811E-1,-2.4206094E-1,-1.4807515E-1,2.1947159E-2,1.7607057E-1,-1.7640028E-2,-2.0080164E-1,8.07822E-2,-4.377923E-2,4.0905324E-1,-2.225356E-1,-1.2558587E-1,1.6860527E-1,-1.880368E-1,-3.8777806E-2,1.570444E-1,1.6542707E-1,2.90639E-1,4.2215878E-1,4.8482843E-2,-1.645028E-2,-1.6813737E-1,-2.1124735E-1,1.6208026E-1,2.3961885E-1,1.091457E-1,8.176896E-2,2.1986678E-1,2.092634E-1,-8.622727E-2,-6.2551156E-2,1.5111382E-1,1.17415786E-1,-2.43342E-1,-1.74625E-1,1.0830764E-1,-1.1470455E-1,1.2943365E-1,1.817245E-2,-2.4489371E-1,-1.3624695E-1,9.641358E-2,1.0810318E-1,-1.4733177E-1],"categories":[],"categories_nodes":[],"categories_segments":[],"categories_sizes":[],"default_left":[true,true,false,true,true,true,false,true,true,true,false,false,true,true,true,true,true,true,true,false,true,true,true,true,true,false,true,false,true,true,false,false,true,true,true,false,true,true,false,false,false,false,false,false,true,false,true,false,false,true,true,true,true,false,true,true,true,true,false,true,false,false,true,false,true,true,true,true,false,false,false,false,false,true,true,true,false,true,true,false,false,true,false,false,true,true,false,true,true,true,false,false,true,true,true,true,true,false,false,false,false,false,false,false,true,false,false,false,true,false,false,false,false,false,true,true,false,true,true,false,false,false,true,false,false,false,false,true,false,true,false,false,false,false,false,false,false,false,true,false,false,true,false,true,false,true,true,false,false,false,true,false,false,false,false,false,false,false,false,false,false,false,false,false,false,true,true,true,false,true,true,false,false,false,true,true,false,true,false,false,false,false,false,false,false,false,false,true,false,true,false,false,true,false,true,false,false,false,false,true,false,false,false,true,true,false,true,false,false,true,false,true,true,false,false,true,true,false,true,false,false,false,false,true,true,false,false,false,true,false,false,false,false,false,false,false,false,false,true,false,false,false,false,false,false,false,false,false,false,false,false,false,false,false,false,false,false,false,false,false,false,false,false,false,false,false,false,false,false,false,false,false,false,false,false,false,false,false,false,false,false,false,false,false,false,false,false,false,false,false,false],"id":4,"left_children":[1,3,5,7,9,11,13,15,17,19,-1,21,23,25,27,29,31,33,35,37,39,41,43,45,47,49,51,-1,53,55,57,59,61,63,65,-1,67,69,-1,-1,-1,-1,-1,71,73,-1,75,-1,77,79,81,83,85,-1,87,89,91,93,95,97,99,-1,101,-1,103,105,107,109,-1,-1,-1,111,113,115,117,119,121,123,125,-1,-1,127,-1,-1,129,131,-1,133,135,137,139,141,143,145,147,149,151,153,-1,-1,-1,-1,155,157,159,-1,-1,161,163,-1,-1,165,167,-1,169,171,-1,173,175,177,-1,-1,179,181,-1,-1,-1,183,-1,185,-1,-1,-1,-1,-1,-1,187,189,191,193,-1,195,-1,197,-1,199,201,203,205,-1,207,209,-1,-1,211,-1,213,-1,-1,-1,-1,215,-1,-1,-1,217,219,221,-1,223,225,227,-1,-1,229,231,-1,233,235,-1,-1,-1,-1,-1,-1,-1,-1,237,-1,239,241,-1,243,-1,245,-1,-1,-1,-1,247,249,251,253,255,257,-1,259,-1,-1,261,263,265,267,-1,-1,269,271,-1,273,275,-1,-1,-1,277,279,-1,-1,-1,281,-1,-1,283,-1,-1,285,-1,287,-1,289,-1,-1,-1,-1,-1,-1,-1,-1,-1,-1,-1,-1,-1,-1,-1,-1,-1,-1,-1,-1,-1,-1,-1,-1,-1,-1,-1,-1,-1,-1,-1,-1,-1,-1,-1,-1,-1,-1,-1,-1,-1,-1,-1,-1,-1,-1,-1,-1,-1,-1,-1,-1],"loss_changes":[1.0641919E4,5.5289014E3,3.460088E2,2.6369238E2,2.401123E0,2.5139835E2,1.2758789E1,6.653613E1,9.787045E0,2.295044E0,0E0,1.5656293E2,1.0789734E1,1.7994067E2,6.084619E1,3.2350098E2,8.186279E0,8.396279E1,1.0299471E1,2.984497E0,2.7219524E0,4.5144653E0,1.563292E2,5.232135E1,1.640324E1,1.29123535E1,6.62595E0,0E0,3.6038887E1,8.7816846E2,2.0718066E2,3.9608887E1,2.7097168E0,5.3786087E0,5.77787E1,0E0,1.7232571E0,2.2452621E0,0E0,0E0,0E0,0E0,0E0,1.5771275E1,2.8720932E1,0E0,6.5020375E0,0E0,2.9968166E0,1.4924927E0,4.5261946E0,1.3938332E0,2.8598979E0,0E0,7.262996E0,6.291698E2,2.9182404E1,3.0191406E1,9.99622E0,4.2708008E1,5.1502748E0,0E0,9.0089786E-1,0E0,1.57547E0,4.4762497E0,1.8631201E0,1.771719E0,0E0,0E0,0E0,9.173023E0,2.2603793E0,6.81015E0,5.6448736E0,5.2119994E0,1.7692823E0,3.8048046E0,3.089285E0,0E0,0E0,2.1364408E0,0E0,0E0,2.3851671E0,5.0569353E0,0E0,1.216564E0,3.750368E0,5.946704E2,8.2644424E1,4.8689705E1,1.4753784E1,9.090234E1,1.4211365E1,7.118928E0,8.818504E0,5.1440735E1,0E0,0E0,0E0,0E0,1.2490368E0,7.574213E0,1.9773102E0,0E0,0E0,9.5121E0,8.295465E0,0E0,0E0,2.1215633E1,1.4695854E0,0E0,2.2414708E0,1.4451332E1,0E0,9.471867E-1,1.1157619E1,6.1827908E0,0E0,0E0,2.6300511E0,1.086123E0,0E0,0E0,0E0,2.5713537E0,0E0,1.5251527E0,0E0,0E0,0E0,0E0,0E0,0E0,3.7244058E0,1.4051025E1,4.037018E0,6.393894E1,0E0,3.1658554E0,0E0,8.137864E0,0E0,4.370117E0,1.9929051E2,4.2775726E1,5.9874695E1,0E0,9.327626E-1,3.8842316E0,0E0,0E0,4.0047012E1,0E0,6.894008E-1,0E0,0E0,0E0,0E0,2.4683075E0,0E0,0E0,0E0,7.285774E0,5.2725325E0,2.7583115E0,0E0,7.9501925E0,1.8212283E0,1.5324036E1,0E0,0E0,5.8191496E-1,1.3714455E0,0E0,3.1116345E0,2.2481887E0,0E0,0E0,0E0,0E0,0E0,0E0,0E0,0E0,3.9101026E0,0E0,3.824353E1,6.817749E0,0E0,2.5329552E0,0E0,7.26081E0,0E0,0E0,0E0,0E0,1.484082E1,2.172419E0,7.782528E0,2.2010315E1,2.1483286E1,1.0728241E1,0E0,2.8311157E1,0E0,0E0,1.7360193E0,2.8369102E0,7.4571495E0,1.2979727E0,0E0,0E0,1.2655644E1,1.7365923E0,0E0,7.1555443E0,4.864891E0,0E0,0E0,0E0,2.8254042E0,6.055151E0,0E0,0E0,0E0,1.0319458E1,0E0,0E0,1.865156E0,0E0,0E0,2.0440722E0,0E0,2.9204595E0,0E0,4.4255347E0,0E0,0E0,0E0,0E0,0E0,0E0,0E0,0E0,0E0,0E0,0E0,0E0,0E0,0E0,0E0,0E0,0E0,0E0,0E0,0E0,0E0,0E0,0E0,0E0,0E0,0E0,0E0,0E0,0E0,0E0,0E0,0E0,0E0,0E0,0E0,0E0,0E0,0E0,0E0,0E0,0E0,0E0,0E0,0E0,0E0,0E0,0E0,0E0,0E0,0E0,0E0,0E0],"parents":[2147483647,0,0,1,1,2,2,3,3,4,4,5,5,6,6,7,7,8,8,9,9,11,11,12,12,13,13,14,14,15,15,16,16,17,17,18,18,19,19,20,20,21,21,22,22,23,23,24,24,25,25,26,26,28,28,29,29,30,30,31,31,32,32,33,33,34,34,36,36,37,37,43,43,44,44,46,46,48,48,49,49,50,50,51,51,52,52,54,54,55,55,56,56,57,57,58,58,59,59,60,60,62,62,64,64,65,65,66,66,67,67,71,71,72,72,73,73,74,74,75,75,76,76,77,77,78,78,81,81,84,84,85,85,87,87,88,88,89,89,90,90,91,91,92,92,93,93,94,94,95,95,96,96,97,97,102,102,103,103,104,104,107,107,108,108,111,111,112,112,114,114,115,115,117,117,118,118,119,119,122,122,123,123,127,127,129,129,136,136,137,137,138,138,139,139,141,141,143,143,145,145,146,146,147,147,148,148,150,150,151,151,154,154,156,156,161,161,165,165,166,166,167,167,169,169,170,170,171,171,174,174,175,175,177,177,